/*
--------------------------------------------------
    James William Fletcher (james@voxdsp.com)
        October 2021
--------------------------------------------------

    This is the FNN version as a single release source file.

    QuakeLive Settings:
    /r_picmip 16
    /cg_shadows 0
    /com_maxfps 333
    /cg_drawfps 1
    /cg_fov 130
    /cg_railTrailTime 0
    /cg_drawCrosshair 0
    
    Prereq:
    sudo apt install libxdo-dev libxdo3 libespeak1 libespeak-dev espeak

    Compile:
    clang quakelive_bluebones_autoshoot_fnn.c -Ofast -mavx -mfma -lX11 -lxdo -lespeak -lm -o aim
*/

#include <stdio.h>
#include <string.h>
#include <unistd.h>
#include <stdlib.h>
#include <stdint.h>
#include <math.h>
#include <time.h>
#include <sys/time.h>
#include <X11/Xutil.h>
#include <signal.h>
#include <sys/stat.h>

#include <xdo.h>
#include <espeak/speak_lib.h>

#pragma GCC diagnostic ignored "-Wgnu-folding-constant"
#pragma GCC diagnostic ignored "-Wunused-result"

#define SCAN_DELAY 1000
#define ACTIVATION_SENITIVITY 0.90f
#define REPEAT_ACTIVATION 0

#define uint unsigned int
#define SCAN_WIDTH 28
#define SCAN_HEIGHT 28

const uint sw = SCAN_WIDTH;
const uint sh = SCAN_HEIGHT;
const uint sw2 = sw/2;
const uint sh2 = sh/2;
const uint slc = sw*sh;
const uint slall = slc*3;

float input[slall] = {0};
     float r[slc] = {0};
     float g[slc] = {0};
     float b[slc] = {0};

Display *d;
int si;
Window twin;
unsigned int x=0, y=0;
unsigned int tc = 0;


/***************************************************
   ~~ Neural Network Forward-Pass
*/
const float fnn_weights[] = {0.34776774,-0.020334812,0.32844415,-0.19543177,-0.44023493,0.045745507,-0.25985295,-0.013559503,0.20167828,-0.4035457,0.3958613,0.5527643,-0.41596252,0.23448887,0.60808355,-0.57820773,0.20914783,0.47806302,-0.1535946,-0.3696845,0.33421844,-0.34703216,-0.18473691,-0.042343583,-0.21584745,0.16276279,-0.002532304,-0.25150093,-0.07528444,0.007625222,-0.11542126,0.10392999,0.40615168,-0.070756115,0.30004534,-0.018354205,0.1815394,0.21203633,-0.023044474,0.050987203,0.51685727,0.18615615,-0.0649128,0.2645272,0.03412392,0.26081112,-0.1277969,0.020088123,-0.5024534,0.2070175,0.26318243,-0.27972326,0.38370323,0.16365124,-0.43638188,-0.041798726,0.013732915,-0.45467556,-0.449975,-0.60862786,0.2529451,0.4495749,0.077716835,-0.3077081,-0.20400482,-0.40624806,-0.6085728,-0.053898837,-0.14898323,-0.39637896,0.44501323,0.17408542,-0.5728064,-0.22496036,-0.50763404,-0.06257519,0.19469933,-0.08483978,0.45351982,-0.5538451,0.0019772137,-0.060017075,-0.45357496,0.15906502,0.22376281,-0.39189884,-0.49323228,-0.16851065,-0.4341898,-0.15823513,0.031879384,0.002797423,0.04889769,-0.11671875,-0.11033801,-0.31857568,0.25189587,-0.33589983,-0.09284172,-0.32152507,-0.04589247,0.26275024,0.1443358,0.0706836,0.28946516,-0.10556411,-0.06434968,0.11676951,0.028755894,-0.09320013,-0.21033345,-0.06465801,0.41364464,0.32923436,-0.27871844,-0.212727,-0.17825684,0.20372479,0.20905326,0.14258741,-0.09014081,-0.15184818,-0.28796625,0.26938754,0.051917903,-0.06949689,0.2688143,0.6341566,0.4558358,0.3900149,-0.6200416,-0.74970543,0.14932337,0.37459812,-0.09785732,-0.38300246,0.14439617,0.10426259,-0.19759724,0.6575817,0.66730785,0.07377676,-0.071740046,-0.014055572,0.019049687,0.2841816,0.11565395,-0.2908219,-0.09722689,-0.47887343,0.09475878,0.5919216,0.5128279,-0.19522841,0.21259147,-0.050529182,0.028327577,0.050291933,0.1465237,-0.103139535,0.14059803,0.24395113,0.4236962,-0.00028432198,0.35597372,0.3305636,-0.47961408,0.033114035,0.1980347,-0.025304506,0.37051028,0.31961012,-0.33777794,0.36378306,-0.011118095,-0.29504713,-0.2656947,-0.079602346,-0.08856699,-0.45171908,-0.24542418,-0.15708873,-0.3096739,-0.20951797,0.13853659,0.20265122,-0.0733966,0.6023481,0.40273073,-0.3480586,-0.02179445,-0.37056708,0.015409857,0.06353671,-0.2207744,0.025870236,0.038683552,0.1066272,-0.17750336,0.04655746,0.09271497,0.08991706,0.042054374,-0.032049965,0.03516363,-0.06860008,-0.21876723,0.24893953,-0.13529213,-0.45930958,0.20003775,0.67067564,0.31766,-0.088634744,-0.26931995,-0.5882085,0.29635274,0.10890954,-0.5051924,0.054471552,0.12468184,-0.31351003,-0.05842677,0.04088298,0.03948201,0.09122583,0.3081275,0.24637115,-0.12794405,0.07498297,-0.038218327,-0.03157804,0.42044285,0.22588104,-0.42953578,0.06023871,0.28603458,0.23627938,0.21395427,0.2628214,0.14485195,-0.10990873,0.14713411,-0.19459656,-0.624874,-0.32528216,0.24349524,-0.17028442,0.034441184,0.38606128,-0.3719825,-0.06089687,0.28380704,-0.32390532,0.39218634,0.39884013,-0.3429481,0.34458143,0.53719956,0.0033773957,0.27460876,0.14685401,0.32064384,0.021889107,-0.05812106,0.20219588,0.07251609,-0.025589606,0.23032168,0.2013056,-0.2503823,-0.35547793,-0.4152741,-0.17964904,0.14434181,-0.08065994,-0.32125595,0.32917386,0.06749379,0.10587613,0.3401923,0.401185,-0.41102284,-0.5331769,-0.48264298,0.07092672,0.03417601,0.05838762,0.23552579,0.09154743,-0.15552771,-0.14392494,-0.060515862,-0.2621005,-0.47928852,-0.12618755,-0.3716527,-0.0561884,0.07945768,-0.084520176,0.11797626,0.50566876,0.36430547,-0.08392137,-0.031018933,-0.26180047,0.08022222,0.18899402,0.2662231,-0.15748075,-0.19962323,-0.2785089,0.35881704,0.36257356,0.30518854,-0.14572488,-0.016365018,-0.20587155,0.116932064,0.3320614,0.02796739,-0.4286568,-0.25963044,-0.22733308,-0.010225918,-0.13157879,0.3192535,-0.16217294,-0.4983254,-0.18016894,0.38641158,-0.07311557,-0.025477603,-0.017099291,-0.78526473,-0.34774998,0.38021317,-0.06360374,0.18138275,-0.0053314925,-0.41085517,-0.12029284,0.011614268,-0.2876209,0.079240896,-0.12245257,0.08856167,0.10516525,-0.43232745,-0.099881425,-0.22624408,0.22100739,0.03404272,-0.0022701488,0.01473884,0.1502875,0.057321865,0.096070856,0.30143073,-0.017844755,-0.3501566,0.066256754,-0.37664112,-0.2088226,0.39620277,0.37246266,-0.09173145,-0.027215945,-0.14118229,0.18682706,-0.025045296,-0.10902886,-0.033792652,0.25193858,0.14117621,-0.3295983,0.13491978,-0.086695634,-0.5679915,0.1865475,-0.23441735,0.21571693,0.18669656,-0.058214504,0.3938122,0.0835812,-0.11596273,-0.08433455,0.0982199,-0.15357673,0.02373078,0.21939488,0.2875558,0.065922156,-2.6410733e-05,0.23714563,-0.079458915,0.09505461,0.012684845,0.023353005,-0.35034743,-0.067631766,0.41982475,0.36028916,0.13070083,-0.007693316,0.0686581,-0.13733691,-0.33626994,-0.21641673,-0.10093511,0.04319657,0.1758301,0.48013118,0.15015279,0.20492499,0.50880766,0.5164542,-0.51004195,0.15797979,0.28584918,-0.104453385,-0.10198122,-0.03935051,-0.6785674,-0.50991344,0.21412177,-0.0035029058,0.25037426,-0.113859236,-0.21330103,-0.23141052,-0.0021976668,0.11870314,0.054755,0.354475,0.78490734,0.10995207,-0.3572916,0.28676465,0.18871324,-0.098348215,0.11371354,-0.053567972,-0.1957011,0.0043511274,-0.22256677,-0.7324757,-0.033031788,-0.2823603,-0.1682446,0.3229808,0.599565,0.14549924,0.19362004,0.33395997,0.1630433,-0.046442583,0.08487299,-0.24561878,-0.21723603,-0.34837785,-0.14424188,0.21747099,-0.11582941,-0.3269022,0.15208705,-0.030917661,-0.12866797,-0.011918945,-0.27384186,-0.108994454,-0.04709915,-0.28938612,0.061583303,0.2358395,0.3231016,-0.052901983,-0.38674873,-0.1877791,-0.29225868,-0.10492059,0.020644477,0.043754008,0.16366553,0.34777665,-0.25292677,0.22390084,0.3278219,-0.44524094,-0.083669715,-0.45795128,0.45240742,0.23919886,0.29964158,-0.16615157,-0.01046303,0.1041418,-0.11807954,-0.15139894,0.15576266,0.15703896,-0.25954,0.006153221,0.21708284,-0.26925233,-0.08267687,0.21030124,-0.05195138,-0.007467692,0.37244162,0.3504666,0.2769113,-0.014829699,-0.09221015,0.021960322,-0.10669615,0.14646867,-0.17730227,0.04275946,0.0868341,-0.3203209,-0.5767343,0.14942378,-0.151856,-0.093961425,0.13701104,-0.07728095,0.09558659,0.027942264,-0.15170187,-0.09007752,0.11717959,-0.086140335,-0.09004283,0.5676629,0.37439755,-0.1406022,-0.16198877,-0.4068133,-0.51640034,0.07196685,-0.22111621,0.30424058,0.54278725,0.20294638,0.18964057,0.03133019,-0.41127342,-0.034423523,0.32339856,-0.11502069,-0.4442361,0.38954428,-0.032927353,-0.5144029,-0.051782805,-0.39437333,0.19089766,0.119178414,-0.000122443,0.12072931,-0.6619418,-0.62497646,0.26188684,-0.09896587,0.0235413,0.5008025,0.41683432,0.36409622,-0.34548703,-0.072982304,0.031006688,0.06739492,0.26612577,0.05449902,0.19266656,-0.02547396,0.14518842,-0.00319864,0.01577153,0.10389345,0.25697866,0.08711936,0.34006605,0.22187772,-0.19469588,0.11051309,0.07002372,-0.6283512,-0.40524212,0.03591765,-0.28116694,-0.1982572,0.04432871,0.17570776,0.21493866,-0.1471727,0.082649685,0.038727306,-0.013784381,0.059368882,-0.18689094,-0.14781211,-0.05321707,-0.40150654,-0.53377324,0.13033548,-0.4293417,-0.0151599515,0.41292694,0.16285233,0.24324672,0.16718638,0.036715664,0.0680684,0.07009074,-0.08147346,-0.25560215,0.3033954,0.047620084,0.052252986,0.15617917,-0.12748027,-0.06944606,0.060219355,0.064507104,0.29614803,0.33218434,-0.1077329,-0.15379381,0.43256006,-0.10251573,-0.38737833,0.43238628,0.37432754,-0.32406396,0.6156935,-0.014746202,-0.51453185,0.243564,-0.079760015,0.12250248,0.32247683,0.36537078,0.09686215,-0.11847422,-0.018561225,0.2985527,0.15968736,0.17610334,-0.2885578,-0.16256215,-0.2153015,-0.30797592,-0.22302252,-0.2279589,0.17269191,-0.5301956,-0.2877716,0.06673479,-0.46296084,-0.23695911,0.054007355,0.31520432,0.4619986,0.19865951,0.06396824,0.328829,-0.030869389,-0.3745257,-0.039302833,0.46903524,0.08961384,0.20221204,0.08380749,-0.08926762,0.118361555,0.008099657,-0.01839754,0.26646617,-0.1313325,-0.4434702,-0.15001339,0.13300739,0.08086068,0.13290879,0.6351015,0.29019338,0.4841405,-0.20694995,0.24829717,0.4560512,-0.11595193,0.0721557,-0.021087412,-0.14099441,0.008853234,-0.04799928,0.10265804,0.36643746,0.06461029,0.21401149,-0.0087056,0.12567297,0.1462801,0.06686699,-0.23218372,0.167859,-0.082506895,-0.2760457,-0.3435304,0.6302113,-0.21888465,-0.34351248,0.4776467,-0.14009842,-0.398265,0.14540312,-0.44532108,0.26050726,0.2763706,-0.31766108,-0.08980634,0.31529918,-0.11593646,0.14917116,0.24522507,0.07992602,-0.34247702,0.031704526,-0.17194349,0.10493608,0.058480572,0.059649218,-0.11324399,-0.18613413,-0.4484452,-0.010159886,0.18943156,-0.09222976,0.0116841905,0.26152933,-0.052544955,-0.057501107,0.13097595,0.19683087,-0.12505408,-0.12230693,0.18220714,-0.06479354,-0.13425466,-0.013302665,-0.24681413,-0.36583543,0.01667591,-0.0008248302,-0.14397037,-0.09988777,-0.18810001,-0.17431845,-0.03737803,0.03362195,0.22086012,0.47902602,-0.298763,0.087092735,0.17927463,-0.13582449,-0.38584203,0.052949548,-0.2066561,-0.7756725,-0.49132112,-0.087993935,0.2399633,0.5622285,-0.46887183,-0.22726351,-0.3930641,-0.47313142,-0.1011386,-0.17833985,-0.41944882,-0.33565342,-0.57387125,-0.020916015,0.43590924,0.2867848,-0.1939872,0.35152918,-0.09020548,-0.100800745,0.8386042,0.08203629,-0.67590934,0.51501596,-0.52421415,-0.21744531,0.72663313,-0.27293125,0.025390504,0.051642098,-0.6738072,0.4675229,0.1393913,-0.44423467,0.50828475,0.093661055,-0.20038104,0.3262656,-0.2905139,-0.28984877,-0.1495052,0.041372348,0.20024446,-0.12490511,0.17813313,-0.033748053,-0.031945404,0.015494154,0.08453303,0.06985195,0.32467094,0.24067698,0.05752675,0.39096984,-0.06639205,0.24347956,0.41156873,0.27893642,0.0038369528,-0.33666632,-0.094967745,-0.33557153,-0.0728315,-0.23887688,-0.22105753,-0.25797617,-0.017965984,-0.29723793,-0.25168562,-0.2356586,0.05374508,0.39239323,0.10054581,-0.09484597,0.13102044,-0.24958403,-0.05818893,0.3629405,-0.30215603,0.22042614,0.3234562,0.0030209734,-0.05350447,0.118921995,-0.0906793,0.45263925,0.12282361,-0.0120321,0.09534762,-0.26044932,-0.22704712,-0.109380074,0.2742143,0.43873462,0.31852034,0.008402843,0.18512411,0.07290124,0.21158497,-0.094404586,-0.24677189,0.66043603,0.12723945,-0.50416785,0.55959344,-0.27195075,-0.98818994,1.0069909,-0.3987523,-0.12727104,0.43255636,-0.34013936,-0.005637867,0.2102335,-0.34315568,0.24273983,0.123662576,-0.22553293,0.07614651,0.323961,0.20072325,-0.23934148,0.34026557,0.06677125,-0.16373473,0.36674264,0.31103072,-0.112645805,0.026886828,-0.12975791,-0.17065339,-0.024681494,0.0917191,-0.06592876,0.112438425,0.012940584,0.19996259,-0.1457145,-0.31830403,0.10246025,0.19396472,-0.016860321,0.2285853,0.07587896,0.16547003,0.11145664,0.044583403,-0.0010371457,0.023827745,-0.4345358,-0.08605659,0.046945818,-0.43966606,-0.26601756,0.30750775,-0.06326197,-0.12236178,0.07758334,0.4547821,0.41167372,-0.4304809,-0.093236424,-0.5295929,0.20181979,0.35570234,0.00471967,-0.14111757,-0.36232948,-0.37812114,0.48444352,0.13915394,-0.20227556,0.16514337,0.1266555,-0.09391196,0.2582029,0.13793124,0.1599213,0.15395346,-0.015277072,-0.301769,0.043115918,0.13529237,-0.16492955,-0.21236844,0.05178042,-0.56483465,-0.1024072,0.41631535,-0.35297826,-0.7706256,0.6859135,-0.2654264,-0.5972726,0.71083724,-0.17575818,-0.18301979,0.5643029,-0.34907174,0.13740872,0.37806854,-0.23660204,-0.37085873,-0.02164964,-0.09012383,-0.658527,0.08605878,0.065996125,-0.046273742,0.13332972,0.116187476,0.11387094,-0.014737373,-0.30801263,-0.26667494,0.17611337,0.05072259,-0.2304827,-0.20372704,-0.30372018,0.039002698,-0.5868075,-0.81418157,0.098983586,-0.22487058,-0.46048823,-0.08430787,0.4846038,0.18345946,0.10196625,-0.05603312,0.14662793,0.3572899,-0.14036846,0.012564399,0.61141026,-0.70560443,0.039684713,0.59939307,-0.6709374,-0.14011063,-0.06919401,-0.15489748,0.2663456,-0.31064567,-0.06984127,-0.45572203,0.32492897,-0.14647439,-0.09838723,0.6164427,0.14396691,0.046872895,0.6590219,-0.5480799,-0.43281084,0.72786826,0.26508886,0.38530612,-0.22670813,0.16271214,-0.1350063,-0.08360214,0.3064186,-0.1486822,-0.75456744,0.3114978,-0.46116638,-0.16777651,0.44064167,-0.14669053,-0.34095716,0.5222742,-0.15835723,-0.79321915,0.40875232,-0.40616822,-0.38970017,0.5805785,0.021886645,-0.3401604,0.7434222,-0.73494023,-0.09485579,0.1993219,-0.37955835,0.4022562,0.41429198,0.090093866,0.45703465,0.27000397,-0.6336945,0.16229329,0.028602017,-0.51083285,-0.16452956,0.26003966,0.17309478,-0.16001642,0.5168324,0.043171015,-0.09811617,0.22588137,0.0073427944,0.14328504,-0.025072556,-0.31249052,0.18726437,0.061228126,-0.40731487,0.030143652,0.31440577,0.003201154,0.08723523,0.05901094,0.1054703,0.4651087,0.2028108,0.47055817,0.59999293,-0.61450523,-0.0820496,0.12074953,-0.72792923,-0.2585386,-0.2540349,-0.34499478,0.0974839,-0.27351606,0.023084905,0.27426025,-0.12862913,-0.28835458,-0.25445083,0.33446813,-0.047041774,0.0023608988,0.26382577,0.07729386,-0.015983205,0.20057458,0.22059,0.20877214,0.25142643,0.18809494,-0.008650539,0.036728762,0.11432672,-0.28774977,0.48293126,0.041148137,-0.47965795,-0.049933136,0.2615557,-0.42673603,-0.32285812,0.16890809,0.09529384,-0.5892684,1.0221913,0.9369408,-1.1804957,0.4377378,-0.39885283,0.11607919,1.1150901,0.9090876,-0.38970998,0.30107147,-0.16236217,0.23523729,0.34417436,-0.28997996,-0.27200174,-0.13586171,-0.7796071,0.54258925,0.710953,0.51396453,0.05075265,-0.4297958,-0.27127317,-0.062097754,-0.23942299,-0.24174508,-0.2231188,0.19901375,0.0763558,0.19192721,0.1080073,0.41074878,-0.4257575,-0.37089387,-0.30714613,-0.17325033,-0.105212316,0.040403325,0.017104054,-0.36222085,-0.13427655,-0.12362734,-0.19976375,-0.14170524,0.30921996,-0.34310532,-0.18347062,0.17074154,-0.19689807,-0.08583905,-0.2626417,0.0123811895,0.17622589,0.16689514,-0.26636714,-0.09468398,-0.11228415,-0.19530831,-0.23072906,0.11386356,-0.06041381,-0.030677937,0.21521795,-0.29871178,-0.017944166,-0.08333193,-0.23839176,0.0014059747,-0.36045444,-0.3067448,-0.27092043,0.31506583,0.01567049,0.036621574,-0.20471889,-0.12578255,-0.57688236,-0.27035454,0.25458905,-0.22566824,-0.5075904,0.40268335,0.12965475,-0.3779284,1.2951118,0.90624005,-1.3289741,0.90697294,-0.046141278,-0.74340796,1.1348941,0.9814828,-0.7645632,0.14047477,-0.36589304,0.39714283,0.18041907,-0.4655477,0.13016494,-0.050874576,-0.3450685,0.39782482,-0.1478865,-0.38421515,0.30438098,-0.013549234,-0.11714124,-0.21500014,-0.04286438,-0.5691477,0.14593181,0.08909177,-0.02619529,0.51551205,0.49780282,0.1947075,0.022743717,0.33728862,0.09183156,-0.2421866,-0.19585042,-0.04801058,-0.21455668,0.15508665,0.16311575,0.42960203,-0.005736602,-0.08820667,0.30223963,-0.52760226,-0.003407208,0.22807382,0.07465271,0.12255526,-0.1495227,-0.21277586,0.007700071,0.12379364,0.2678568,0.5242683,0.28391838,0.25330356,0.15807323,0.06664445,-0.20605314,-0.52423024,0.07698487,-0.002865532,-0.092508525,-0.31595623,-0.45502338,-0.19559689,0.56353354,0.0771429,0.12780502,-0.105360106,0.05295014,0.08277903,0.12798977,0.56380206,0.090704285,-0.22179124,0.24884185,-0.24919768,-0.21540053,-0.16590154,-0.46532145,-0.6085252,0.7709822,0.14525151,-0.46399742,0.60715353,-0.20168027,-1.0186795,0.35757926,0.16362563,0.089438036,0.15134878,0.07236608,-0.25357,0.20104906,-0.102079816,-0.42408317,0.37480262,0.06796132,0.21628487,0.52218014,0.20150132,-0.23680037,0.30704546,0.17439106,-0.73465717,-0.0015707653,-0.16766877,-0.22610001,0.4316096,0.33386174,-0.21568044,-0.032960802,-0.21756859,-0.070306495,0.20213458,-0.16807227,0.2354748,0.13051642,0.020251678,0.21375716,0.06421559,-0.29058397,0.19738905,-0.099087395,0.23898065,-0.12620148,-0.3294103,0.4543479,-0.16905835,0.0027336886,0.13911577,-0.021963498,-0.17592783,-0.08111556,0.15732628,-0.15706114,0.08337126,0.36619005,0.17243646,0.17272237,-0.18491815,0.14930643,-0.28212175,0.3243927,-0.06931124,-0.3992432,0.16419075,-0.09208329,-0.15407673,0.43568245,0.22695254,-0.24922235,-0.30802074,-0.116680436,-0.4991292,-0.26047525,0.4286682,-0.38882476,0.4865315,0.5046393,0.21258777,-0.23927173,0.41092432,-0.4936849,-0.36076844,0.76453865,-0.19590415,-0.4103603,0.46823776,0.12436687,-0.4176432,0.13811369,0.04970536,-0.34726217,0.22365011,-0.18502332,-0.33719665,-0.014854401,0.108223125,-0.2978146,-0.13146785,-0.17938612,-0.012359091,-0.2653319,-0.49179795,0.21947226,0.060945958,0.20387484,-0.16527517,-0.39228782,-0.3293788,-0.16359822,0.07901311,-0.013082319,-0.10965285,0.14375089,0.19109921,-0.23462148,0.17029208,-0.0732937,0.043225583,-0.13507779,-0.22750485,0.25276765,-0.10261931,-0.16848633,0.20397179,-0.24972731,-0.34647906,0.33266914,-0.37690696,-0.041379325,0.51088387,-0.20981848,0.057417743,0.1480855,-0.47214687,-0.10863464,0.50830585,0.033103578,0.31516734,0.05256521,-0.52918667,-0.061649453,-0.09449813,0.291293,0.3883668,0.24216107,0.25553373,0.14258705,0.16720927,0.017481513,-0.1293996,0.17672649,0.09744669,-0.15289733,-0.2977576,0.22188848,0.036728162,-0.4590909,0.17040424,-0.2210846,-0.3980408,0.18790205,0.011326253,-0.044905744,0.4956783,0.06848941,-0.35394362,1.0730513,-0.0014877003,-0.2813228,0.29730782,0.0686438,-0.49799144,0.04207728,0.022381455,-0.45333815,0.19189753,-0.01737026,-0.4232349,0.30745488,-0.017901314,-0.24002089,0.26842457,0.24493848,0.077621356,0.08399972,-0.021335134,0.3587465,-0.0010889848,0.058555286,0.13617446,-0.19788659,-0.009457679,-0.009317907,0.43923894,0.47912583,-0.33596686,-0.47723624,-0.41300088,0.33380347,0.12946574,0.30703005,0.3093052,0.19957478,0.46441716,0.08199263,-0.22767943,0.02362647,-0.17006427,-0.97654945,-0.30574632,0.24847502,-0.53376645,-0.1213553,0.19440171,-0.22110118,0.07903041,0.061312154,-0.15996347,0.09365106,0.53674656,-0.04875324,0.248711,0.119265206,-0.372621,-0.057156567,-0.41285166,-0.51062757,-0.501994,-0.16640927,0.09532021,-0.09090056,-0.060315747,-0.27876523,-0.12646443,-0.14332373,-0.57463324,-0.63140124,-0.43641073,-0.02821773,-0.27268398,0.059720136,0.14792264,-0.12618454,0.23525833,0.25557375,0.11888574,-0.22942479,0.3008299,-0.052756723,-0.9972296,0.5109028,0.1761653,-0.5022506,-0.0994121,-0.5067028,-0.2370679,0.4025015,-0.029805845,-0.21961057,0.37887135,0.1109775,-0.09009093,0.30948985,-0.009615627,-0.4608138,0.19954726,0.19742385,-0.11562768,0.011623729,-0.007903803,0.11865637,0.4770048,0.45618904,-0.1108126,-0.407695,-0.30615667,0.06906521,-0.16986783,-0.18272427,0.03495201,-0.13851535,-0.11431547,0.2487698,-0.1438592,-0.20542602,-0.3104562,-0.1047875,-0.05453428,-0.23756506,-0.4122403,0.029823102,0.016116725,-0.413738,0.0030754728,0.2538894,-0.6410625,-0.14473051,-0.42766115,-0.27414945,0.106074564,-0.2732578,-0.2057371,0.3179684,-0.024102854,0.26123005,0.21794231,0.23965274,0.015893811,0.18856177,0.42696908,0.22028224,0.10010592,-0.48772633,0.17590125,0.040913317,-0.5382736,-0.219015,0.050031558,0.35875836,0.10445826,0.32348645,0.09897739,0.38623947,0.33286878,-0.04523898,0.19975333,-0.011568286,-0.41043037,-0.065985344,-0.28585878,-0.06454763,-0.08076283,-0.14193337,-0.43435016,0.04214196,-0.15775274,-0.31340215,0.34042814,0.12733237,-0.07391431,0.580396,0.06237985,-0.38911337,0.07891975,-0.27218947,-0.1906033,-0.120469876,-0.10974646,-0.27347475,0.27275047,0.25855502,-0.2621475,-0.07147485,-0.23774403,-0.28481737,0.22258489,-0.09636436,-0.112193786,0.047542356,-0.18430379,0.061094593,-0.2722965,-0.26207265,0.21793365,0.21710496,0.17759992,0.29719606,0.26194468,0.24162206,-0.17761265,-0.5998849,-0.35055187,0.30035815,-0.18499212,0.20448495,0.44812357,0.048772864,0.5688608,0.27363548,0.0045763403,0.4337416,0.01462264,-0.046821486,0.57241607,0.09203727,0.043568198,0.65172315,-0.16023749,0.040430255,0.038945112,-0.008126248,0.07602437,-0.14772183,0.32074004,-0.14063954,-0.33175164,-0.15911491,0.5719607,0.42609006,0.010405644,-0.032502156,-0.19470362,0.106175646,0.17023678,0.07043805,-0.025267102,-0.13741018,-0.021574546,-0.14985937,0.26186302,0.1966937,-0.55982566,-0.49196312,-0.63576865,0.13615242,0.08556506,0.09048705,-0.07337133,0.5390142,0.1736864,-0.056539293,0.6064506,0.14458477,-0.16636233,0.02171767,-0.35108435,-0.027936887,0.33678874,-0.133767,0.051924683,0.35291517,0.34917036,-0.084162176,0.10159924,-0.3570402,0.009108694,0.06604812,-0.36432424,0.21302068,0.42651546,-0.2366194,0.22997189,0.07746842,-0.54847664,0.8576112,-0.008253011,-0.26905775,0.05937414,-0.06967428,-0.41435942,0.22922592,0.5082088,0.10817488,-0.18870103,-0.1166054,-0.22587936,0.22453617,-0.10243096,0.31297982,0.3821906,-0.38934565,0.4293821,0.24373543,-0.17601767,-0.07066036,-0.09296855,-0.2588904,-0.12480277,0.24195749,0.22399938,0.4922749,0.05268142,-0.30364445,-0.29085112,-0.28621784,-0.12701687,-0.032487806,-0.3532806,-0.43706894,-0.47785226,-0.10272482,0.05472651,0.08021161,0.30637327,0.026272636,-0.01863435,0.6615957,-0.38390136,-0.24413836,-0.007596752,-0.41067156,-0.04917843,-0.2397889,-0.33745822,-0.11070246,0.12820935,-0.077513695,0.18546556,0.36114708,0.5576711,0.30392864,-0.017287416,0.11925071,-0.40192553,-0.13066427,0.13432774,-0.4596028,0.100686185,0.46045342,-0.14567503,0.06724502,0.5638393,-0.03670979,-0.35707107,0.09453481,-0.32401732,-0.064677685,0.038399536,-0.27863467,0.027522769,-0.03933901,-0.11717318,-0.112102754,0.2693549,-0.026011692,0.36202666,0.40847412,0.13314724,0.3959367,0.03900921,-0.0107700955,0.017377755,-0.21285158,-0.38046128,-0.11009602,0.19948307,0.109970644,-0.20612091,-0.45079204,-0.18125577,-0.16589181,-0.43053195,-0.00037819808,0.21481466,-0.41926414,0.3879898,0.0010654883,-0.28349763,0.05142612,0.016660096,0.039421786,0.27948645,-0.16565585,0.47853285,0.67302907,-0.10212944,-0.106864,0.31583077,0.26420587,0.27442312,0.59545255,0.07557526,-0.5355622,-0.27651742,-0.13422824,-0.26128918,-0.019799145,0.04347913,-0.29077497,-0.16026899,0.5077849,-0.16820887,-0.2058944,-0.28944656,-0.0010240083,0.08383207,-0.030115895,0.12618269,0.18232906,-0.22227012,0.20310156,0.65963095,-0.2297214,0.09064666,-0.07386678,0.01832713,0.47783923,0.08538266,-0.4336946,0.08457701,-0.38256016,-0.51268715,-0.2025751,-0.331476,-0.3176606,0.2729369,0.09458369,0.1889297,0.38611552,0.10716356,0.2352548,0.47885332,-0.029316792,-0.40835652,-0.29720634,-0.4213684,-0.24457614,-0.2072931,-0.019593136,0.3900714,0.1421267,0.0743822,0.21600151,-0.14958952,-0.10780922,-0.03538534,-0.09276009,-0.073181346,-0.40769264,-0.035902604,0.123556376,0.2184509,-0.025195364,0.44503394,0.3517884,-0.007279066,0.44008702,-0.26026526,-0.69879735,-0.22053191,-0.25040156,-0.31716168,-0.096730135,-0.2067563,-0.23901384,-0.0085578915,-0.34732023,-0.07799797,0.01301322,0.34284887,-0.19161685,0.1442228,0.15092747,-0.10088172,0.15408708,0.28005546,-0.20942366,-0.14243928,-0.11815249,0.19372752,0.5888956,-0.24714419,0.14069562,0.29061317,-0.20753789,0.070964135,-0.028797703,0.0029979555,0.09065325,0.32976928,-0.26033264,0.33315563,0.32283938,-0.66304606,0.29674405,0.35993475,-0.28264803,0.4017101,0.07183728,-0.6397975,0.03630782,-0.4741695,-0.044205025,0.37205002,0.22536159,0.31063193,0.4242156,0.21815032,-0.4614109,-0.09152679,-0.5377518,0.024498206,0.14050171,-0.15691824,-0.16969018,-0.1451743,-0.24960124,0.1084072,0.26899126,0.15574953,0.014294953,0.11182411,-0.08564305,0.14610599,-0.31192583,-0.22156736,0.031929985,0.024062749,0.048325893,0.34851083,0.17588161,0.21857008,0.14879069,-0.32308972,-0.16529064,-0.3372522,-0.5615728,-0.13531485,0.30340984,-0.048846446,-0.026633402,0.3186647,-0.12726994,0.39217424,0.0740956,-0.32720068,0.08503045,-0.52603287,-0.8886244,-0.49021155,-0.15851003,-0.33266327,0.05652205,-0.1142177,-0.15293206,-0.1753895,0.30749437,0.0468086,-0.19697875,0.13122119,0.10902152,0.050306875,-0.52043825,-0.018003484,0.20010018,-0.01724977,0.60098195,0.34782013,-0.05272137,0.1682752,-0.10042267,0.2026984,0.31008136,0.33640853,-0.0018511525,-0.32656047,-0.28193456,-0.48387435,0.1443378,-0.112585075,-0.10234537,0.32547402,-0.15641665,0.1461335,0.24209319,-0.34756705,0.23399131,0.29974818,-0.14247485,-0.056349497,0.2824079,-0.36182395,-0.072725885,0.4400992,0.024456229,-0.049259305,0.61996615,0.18268485,-0.29066473,-0.00607957,-0.21617033,0.11279478,0.29567614,0.24347691,-0.31867003,0.18234783,-0.18757366,-0.15928611,-0.20500153,-0.20549136,-0.0982324,0.011721128,-0.10658414,-0.3601305,0.10419281,0.12283494,-0.13747689,0.13444026,0.5481064,-0.03275572,0.02212415,0.4040697,-0.036481854,0.019469969,0.38481757,-0.070785046,-0.13613175,0.53806776,0.2842653,-0.45522347,0.03026235,0.3007254,-0.13100655,0.23106024,0.40872082,0.07775434,0.13842756,0.10786246,-0.02624097,0.08685394,-0.1537268,0.10236702,-0.11387375,0.2190732,-0.010850306,0.15268037,-0.37754503,-0.039437085,0.23961057,-0.15621832,-0.2713704,-0.2891636,0.02373161,0.040786892,-0.08346108,0.42167416,0.037051056,0.14507705,0.27974287,0.3550492,0.0398428,-0.10097417,0.21984561,0.0036970896,-0.0063034003,0.15385357,-0.35480094,0.663347,0.015564864,-0.21508871,-0.034822267,-0.21177226,-0.6201438,0.23491037,0.68468964,0.12982619,-0.3803915,0.030026846,-0.6371475,0.33506042,0.2734936,-0.48337293,-0.028466105,-0.16851586,-0.46638286,0.12467595,-0.15388578,-0.2593188,0.5523618,0.3238667,0.15388948,0.4567257,0.43656585,0.38628328,-0.49650702,-0.16542749,-0.33279037,-0.16009346,0.183619,0.31086168,-0.25533575,-0.32393327,-0.14949144,-0.11591007,-0.14338562,-0.034381922,-0.14690295,-0.391067,-0.17960331,0.13679977,-0.67208403,-0.008643933,0.19811568,-0.5876038,0.20454754,0.6059309,0.020428259,0.6393129,0.30930197,-0.28038356,0.065989636,-0.20211534,0.07586637,0.12569334,-0.0080232015,-0.4638521,-0.04679718,0.23973905,0.14826575,0.35627618,-0.09020976,0.3238835,0.4971054,-0.27407694,-0.19239834,-0.4627009,-0.067247406,-0.36835545,-0.3049417,-0.046889428,-0.20193206,0.099849865,0.18549319,-0.083152175,-0.30608702,0.019797582,0.057941433,-0.17908509,-0.43568423,0.09398051,-0.53669935,0.13982928,0.53623784,-0.3314026,0.14326896,0.21317376,-0.22115932,-0.0018897828,0.12641132,-0.08686694,-0.13871717,0.37083188,-0.111283734,0.4047379,0.33979863,-0.18659079,0.0035563144,0.7849895,0.3193507,-0.04402143,-0.36621678,-0.33077022,-0.067451514,-0.30537626,-0.3752649,-0.259132,-0.45680663,-0.41157767,0.07419436,0.23711362,0.31939787,0.22825699,-0.06257584,0.26096246,0.12843707,-0.3279155,0.16213988,0.26780915,0.018041512,0.020161977,-0.045897715,-0.13453181,-0.009774752,-0.22587433,-0.30583167,-0.09438495,0.39719626,-0.58234596,-0.03115091,0.54023236,-0.35404265,-0.030624555,0.30840772,0.32318142,0.299108,0.124495864,-0.2238918,-0.14994565,0.040221773,-0.20216593,-0.074808985,-0.14996323,0.008141305,-0.0821748,-0.17562775,0.25204378,0.24463741,-0.27777496,-0.2905751,-0.42214233,0.011578483,0.27227044,0.37413305,0.2175911,0.11942765,0.24243805,0.34026378,-0.07580678,-0.33524427,0.16336553,-0.0031707557,-0.34549448,0.2512529,0.38167405,-0.1353789,0.013987823,0.757366,-0.031995688,-0.25537422,-0.012420756,-0.025684714,-0.5689242,0.17430611,0.20100771,-0.37952733,0.2745509,0.005807152,-0.1881976,0.06385588,-0.5776707,-0.66284853,0.27275953,-0.13430691,-0.40949357,0.15740837,-0.14141533,0.21476507,0.46768513,0.47324824,-0.021955086,0.011997003,0.11964107,0.30247715,0.63323295,0.7137917,-0.30393606,-0.3013215,-0.22493745,0.072451964,-0.624881,-0.3956565,0.28065798,-0.22979775,0.12226746,0.2535862,-0.027502056,0.2913293,0.20898418,-0.15647124,0.3252817, /* bias */ -1.0107675};

static inline float sigmoid(const float x)
{
    return 1.f / (1.f + exp(-x));
}

float processModel(const float* input)
{
    float o1 = 0.f;
    for(int i = 0; i < slall; i++)
        o1 += input[i] * fnn_weights[i]; // weight
    o1 += fnn_weights[slall]; // bias
    return sigmoid((tanh(o1) * 3.673439026f) + 0.1260426193f);
}

/***************************************************
   ~~ Utils
*/
//https://www.cl.cam.ac.uk/~mgk25/ucs/keysymdef.h
//https://stackoverflow.com/questions/18281412/check-keypress-in-c-on-linux/52801588
int key_is_pressed(Display* dpy, KeySym ks)
{
    char keys_return[32];
    XQueryKeymap(dpy, keys_return);
    KeyCode kc2 = XKeysymToKeycode(dpy, ks);
    int isPressed = !!(keys_return[kc2 >> 3] & (1 << (kc2 & 7)));
    return isPressed;
}

unsigned int espeak_fail = 0;
void speakS(const char* text)
{
    if(espeak_fail == 1)
    {
        char s[256];
        sprintf(s, "/usr/bin/espeak \"%s\"", text);
        system(s);
        usleep(33000);
    }
    else
    {
        espeak_Synth(text, strlen(text), 0, 0, 0, espeakCHARS_AUTO,NULL,NULL);
    }
}

uint qRand(const uint min, const uint max)
{
    static float rndmax = (float)RAND_MAX;
    return ( ( (((float)rand())+1e-7f) / rndmax ) * ((max+1)-min) ) + min;
}

uint64_t microtime()
{
    struct timeval tv;
    struct timezone tz;
    memset(&tz, 0, sizeof(struct timezone));
    gettimeofday(&tv, &tz);
    return 1000000 * tv.tv_sec + tv.tv_usec;
}

/***************************************************
   ~~ X11 Utils
*/

Window getWindow(Display* d, const int si) // gets child window mouse is over
{
    XEvent event;
    memset(&event, 0x00, sizeof(event));
    XQueryPointer(d, RootWindow(d, si), &event.xbutton.root, &event.xbutton.window, &event.xbutton.x_root, &event.xbutton.y_root, &event.xbutton.x, &event.xbutton.y, &event.xbutton.state);
    event.xbutton.subwindow = event.xbutton.window;
    while(event.xbutton.subwindow)
    {
        event.xbutton.window = event.xbutton.subwindow;
        XQueryPointer(d, event.xbutton.window, &event.xbutton.root, &event.xbutton.subwindow, &event.xbutton.x_root, &event.xbutton.y_root, &event.xbutton.x, &event.xbutton.y, &event.xbutton.state);
    }
    return event.xbutton.window;
}

Window findWindow(Display *d, Window current, char const *needle)
{
    Window ret = 0, root, parent, *children;
    unsigned cc;
    char *name = NULL;

    if(current == 0)
        current = XDefaultRootWindow(d);

    if(XFetchName(d, current, &name) > 0)
    {
        int r = strcmp(needle, name);
        XFree(name);
        if(r == 0)
            return current;
    }

    if(XQueryTree(d, current, &root, &parent, &children, &cc) != 0)
    {
        for(unsigned int i = 0; i < cc; ++i)
        {
            Window win = findWindow(d, children[i], needle);

            if(win != 0)
            {
                ret = win;
                break;
            }
        }
        XFree(children);
    }
    return ret;
}

Window getNextChild(Display* d, Window current)
{
    unsigned int cc = 0;
    Window root, parent, *children;
    if(XQueryTree(d, current, &root, &parent, &children, &cc) == 0)
        return current;
    const Window rw = children[0];
    XFree(children);
    //printf("%lX\n", children[i]);
    return rw;
}

void processScanArea(Window w)
{
    // get image block
    XImage *img = XGetImage(d, w, x-sw2, y-sh2, sw, sh, AllPlanes, XYPixmap);
    if(img == NULL)
        return;

    // colour map
    const Colormap map = XDefaultColormap(d, si);

    // extract colour information
    int i = 0;
    for(int y = 0; y < sh; y++)
    {
        for(int x = 0; x < sw; x++)
        {
            XColor c;
            c.pixel = XGetPixel(img, x, y);
            XQueryColor(d, map, &c);

            input[i]   = c.red   / 65535;
            input[i+1] = c.green / 65535;
            input[i+2] = c.blue  / 65535;
            i += 3;
        }
    }

    // free image block
    XFree(img);
}

/***************************************************
   ~~ Console Utils
*/

int gre()
{
    int r = 0;
    while(r == 0 || r == 15 || r == 16 || r == 189)
    {
        r = (rand()%229)+1;
    }
    return r;
}
void random_printf(const char* text)
{
    const unsigned int len = strlen(text);
    for(unsigned int i = 0; i < len; i++)
    {
        printf("\e[38;5;%im", gre());
        printf("%c", text[i]);
    }
    printf("\e[38;5;123m");
}

void rainbow_printf(const char* text)
{
    static unsigned int base_clr = 0;
    if(base_clr == 0)
        base_clr = (rand()%125)+55;
    
    base_clr += 3;

    unsigned int clr = base_clr;
    const unsigned int len = strlen(text);
    for(unsigned int i = 0; i < len; i++)
    {
        clr++;
        printf("\e[38;5;%im", clr);
        printf("%c", text[i]);
    }
    printf("\e[38;5;123m");
}

void rainbow_line_printf(const char* text)
{
    static unsigned int base_clr = 0;
    if(base_clr == 0)
        base_clr = (rand()%125)+55;
    
    printf("\e[38;5;%im", base_clr);
    base_clr++;
    if(base_clr >= 230)
        base_clr = (rand()%125)+55;

    const unsigned int len = strlen(text);
    for(unsigned int i = 0; i < len; i++)
        printf("%c", text[i]);
    printf("\e[38;5;123m");
}

/***************************************************
   ~~ Program Entry Point
*/
int main()
{
    srand(time(0));
    signal(SIGPIPE, SIG_IGN);

    if(espeak_Initialize(AUDIO_OUTPUT_SYNCH_PLAYBACK, 0, 0, 0) < 0)
        espeak_fail = 1;

    printf("\e[1;1H\e[2J");
    rainbow_printf("James William Fletcher (james@voxdsp.com)\n\n");
    rainbow_printf("L-CTRL + L-ALT = Toggle BOT ON/OFF\n");
    rainbow_printf("R-CTRL + R-ALT = Toggle HOTKEYS ON/OFF\n");
    rainbow_printf("P = Toggle crosshair\n\n");
    rainbow_printf("G = Get activation for reticule area.\n");
    rainbow_printf("H = Get scans per second.\n");
    rainbow_printf("\nDisable the game crosshair and use the one provided by this bot, or if your monitor provides a crosshair use that.\n\n");

    xdo_t* xdo;
    XColor c[9];
    GC gc = 0;
    unsigned int enable = 0;
    unsigned int offset = 3;
    unsigned int crosshair = 0;
    unsigned int hotkeys = 1;
    time_t ct = time(0);

    // open display 0
    d = XOpenDisplay(":0");
    if(d == NULL)
    {
        printf("Failed to open display\n");
        return 0;
    }

    // get default screen
    si = XDefaultScreen(d);

    //xdo
    xdo = xdo_new(":0.0");

    // set console title
    Window awin;
    xdo_get_active_window(xdo, &awin);
    xdo_set_window_property(xdo, awin, "WM_NAME", "QuakeLive BlueBones FNN");

    // get graphics context
    gc = DefaultGC(d, si);

    // find bottom window
    twin = findWindow(d, 0, "Quake Live");
    if(twin != 0)
    {
        printf("QL Win: 0x%lX\n", twin);
        twin = getNextChild(d, twin);
        printf("QL Win Child: 0x%lX\n\n", twin);
    }
    
    while(1)
    {
        // loop every 1 ms (1,000 microsecond = 1 millisecond)
        usleep(1000);

        // inputs
        if(key_is_pressed(d, XK_Control_L) && key_is_pressed(d, XK_Alt_L))
        {
            if(enable == 0)
            {                
                // get window
                //xdo_get_active_window(xdo, &twin);
                twin = findWindow(d, 0, "Quake Live");
                if(twin != 0)
                    twin = getNextChild(d, twin);
                else
                    twin = getWindow(d, si);

                // get center window point (x & y)
                XWindowAttributes attr;
                XGetWindowAttributes(d, twin, &attr);
                x = attr.width/2;
                y = attr.height/2;

                // toggle
                enable = 1;
                usleep(300000);
                rainbow_line_printf("BOT: ON\n");
                speakS("on");
            }
            else
            {
                enable = 0;
                usleep(300000);
                rainbow_line_printf("BOT: OFF\n");
                speakS("off");
            }
        }
        
        // bot on/off
        if(enable == 1)
        {
            // input toggle
            if(key_is_pressed(d, XK_Control_R) && key_is_pressed(d, XK_Alt_R))
            {
                if(hotkeys == 0)
                {
                    hotkeys = 1;
                    usleep(300000);
                    printf("HOTKEYS: ON [%ix%i]\n", x, y);
                    speakS("hk on");
                }
                else
                {
                    hotkeys = 0;
                    usleep(300000);
                    rainbow_line_printf("HOTKEYS: OFF\n");
                    speakS("hk off");
                }
            }

            if(hotkeys == 1)
            {
                // crosshair toggle
                if(key_is_pressed(d, XK_P))
                {
                    if(crosshair == 0)
                    {
                        crosshair = 1;
                        usleep(300000);
                        rainbow_line_printf("CROSSHAIR: ON\n");
                        speakS("cx on");
                    }
                    else
                    {
                        crosshair = 0;
                        usleep(300000);
                        rainbow_line_printf("CROSSHAIR: OFF\n");
                        speakS("cx off");
                    }
                }

                if(key_is_pressed(d, XK_G)) // print activation when pressed
                {
                    static uint64_t st = 0;
                    static uint sc = 0;
                    processScanArea(twin);

                    const float ret = processModel(&input[0]);
                    sc++;
                    if(microtime() - st >= 1000000)
                    {
                        printf("\e[36mSPS: %u\e[0m\n", sc);
                        sc = 0;
                        st = microtime();
                    }

                    if(ret > ACTIVATION_SENITIVITY)
                    {
                        printf("\e[93mA: %f\e[0m\n", ret);
                        XSetForeground(d, gc, 65280);
                        XDrawRectangle(d, twin, gc, x-sw2-1, y-sh2-1, sw+2, sh+2);
                        XSetForeground(d, gc, 0);
                        XDrawRectangle(d, twin, gc, x-sw2-2, y-sh2-2, sw+4, sh+4);
                        XFlush(d);
                    }
                    else
                    {
                        printf("A: %f\n", ret);
                        XSetForeground(d, gc, 16711680);
                        XDrawRectangle(d, twin, gc, x-sw2-1, y-sh2-1, sw+2, sh+2);
                        XSetForeground(d, gc, 0);
                        XDrawRectangle(d, twin, gc, x-sw2-2, y-sh2-2, sw+4, sh+4);
                        XFlush(d);
                    }
                }

                if(key_is_pressed(d, XK_H)) // print samples per second when pressed
                {
                    static uint64_t st = 0;
                    static uint sc = 0;
                    processScanArea(twin);
                    const float ret = processModel(&input[0]);
                    sc++;
                    if(microtime() - st >= 1000000)
                    {
                        printf("\e[36mSPS: %u\e[0m\n", sc);
                        sc = 0;
                        st = microtime();
                    }              
                }
            }

            processScanArea(twin);
            const float activation = processModel(&input[0]);
            if(activation > ACTIVATION_SENITIVITY)
            {
                tc++;

                // did we activate enough times in a row to be sure this is a target?
                if(tc > REPEAT_ACTIVATION)
                {
                    xdo_mouse_down(xdo, CURRENTWINDOW, 1);
                    usleep(100000);
                    xdo_mouse_up(xdo, CURRENTWINDOW, 1);

                    // display ~1s recharge time
                    if(crosshair != 0)
                    {
                        crosshair = 2;
                        ct = time(0);
                    }
                }
            }
            else
            {
                tc = 0;
            }

            if(crosshair == 1)
            {
                XSetForeground(d, gc, 65280);
                XDrawRectangle(d, twin, gc, x-sw2-1, y-sh2-1, sw+2, sh+2);
                XFlush(d);
            }

            if(crosshair == 2)
            {
                if(time(0) > ct+1)
                    crosshair = 1;

                XSetForeground(d, gc, 16711680);
                XDrawRectangle(d, twin, gc, x-sw2-1, y-sh2-1, sw+2, sh+2);
                XSetForeground(d, gc, 65280);
                XDrawRectangle(d, twin, gc, x-sw2-2, y-sh2-2, sw+4, sh+4);
                XFlush(d);
            }
        }

        //
    }

    // done, never gets here in regular execution flow
    XCloseDisplay(d);
    return 0;
}

