/*
--------------------------------------------------
    James William Fletcher (github.com/mrbid)
--------------------------------------------------
        FEBRUARY 2023
        ~~~~~~~~~~~~~

    Force models to aqua blue bones!

    QuakeLive Settings:
    /cg_shadows 0
    /com_maxfps 250
    /cg_drawfps 1
    /cg_fov 150
    /cg_railTrailTime 0
    /cg_oldrail 1
    
    Prereq:
    sudo apt install clang libx11-dev libxdo-dev libxdo3 libespeak1 libespeak-dev espeak

*/

#include <stdio.h>
#include <string.h>
#include <unistd.h>
#include <stdlib.h>
#include <stdint.h>
#include <math.h>
#include <time.h>
#include <sys/time.h>
#include <X11/Xutil.h>
#include <sys/stat.h>

#include <xdo.h>
#include <espeak/speak_lib.h>

#include "k2c_include.h" 
#include "k2c_tensor_include.h" 

#pragma GCC diagnostic ignored "-Wgnu-folding-constant"
#pragma GCC diagnostic ignored "-Wunused-result"

#define SCAN_DELAY 1000
#define ACTIVATION_SENITIVITY 0.97f
#define REPEAT_ACTIVATION 0

#define uint unsigned int
const uint sd = 28;
const uint sd2 = sd/2;
const uint slall = (sd*sd)*3;

float input[slall] = {0};
uint sps = 0; // for SPS

Display *d;
int si;
Window twin;
unsigned int x=0, y=0;
unsigned int tc = 0;

char targets_dir[256];


/***************************************************
   ~~ Neural Network Forward-Pass
*/
void processScanArea(Window w);
void processCNN(k2c_tensor* input_1_input, k2c_tensor* dense_output)
{ 
    size_t conv2d_stride[2] = {1,1}; 
    size_t conv2d_dilation[2] = {1,1}; 
    float conv2d_output_array[5408] = {0}; 
    k2c_tensor conv2d_output = {&conv2d_output_array[0],3,5408,{26,26, 8, 1, 1}}; 
    float conv2d_kernel_array[216] = {
    +1.54020488e-01f,+3.06381524e-01f,+2.73882300e-01f,+1.40174121e-01f,-2.08448574e-01f,
    -3.34871888e-01f,+3.08775157e-02f,-2.68755294e-02f,-4.99854088e-01f,+3.30928326e-01f,
    +2.68453717e-01f,-2.41592407e-01f,-2.70153493e-01f,-2.97940254e-01f,-2.75823981e-01f,
    -1.01060353e-01f,-2.28385061e-01f,+1.25556633e-01f,+9.49865654e-02f,+1.55538723e-01f,
    +5.95160246e-01f,-3.01864356e-01f,-2.46486261e-01f,-2.89422482e-01f,-1.37297362e-01f,
    -2.69855529e-01f,-1.96651712e-01f,+5.11044979e-01f,-2.61365950e-01f,+6.06126972e-02f,
    +4.73048270e-01f,+1.21774919e-01f,+6.95481539e-01f,-2.86435425e-01f,-2.38455087e-01f,
    -1.57161996e-01f,-3.67232114e-01f,-5.82579188e-02f,-2.10463673e-01f,-2.04384074e-01f,
    +2.19365031e-01f,-2.76033401e-01f,-4.52027321e-02f,-4.03609574e-02f,+4.29439247e-01f,
    -3.45138550e-01f,+1.83695793e-01f,-4.30098534e-01f,-8.06649104e-02f,+1.22253686e-01f,
    +3.12572241e-01f,+4.99627143e-01f,-5.92419207e-01f,-8.36072788e-02f,+1.82539746e-01f,
    -2.40551963e-01f,+1.83717161e-01f,-2.78490186e-01f,+1.64838359e-01f,-6.65167421e-02f,
    +1.06807267e-02f,+3.20569456e-01f,-3.31901014e-01f,+2.93933451e-01f,+1.56517662e-02f,
    -2.06932977e-01f,+3.82714838e-01f,+2.44762927e-01f,+2.33163700e-01f,-1.25202537e-01f,
    -2.16479376e-01f,-9.19215381e-02f,+8.40078294e-02f,+8.17857310e-02f,+3.36001366e-02f,
    -2.72183865e-01f,+2.51994640e-01f,-4.79133539e-02f,+6.20197892e-01f,+1.50561705e-01f,
    -5.27863324e-01f,-3.01809013e-01f,+4.23530430e-01f,-8.29113126e-01f,-3.24826360e-01f,
    -2.72154361e-01f,+1.26589641e-01f,+1.08570404e-01f,-4.83676285e-01f,+7.67383650e-02f,
    +4.40710075e-02f,-3.57589602e-01f,+4.32998776e-01f,+3.09429646e-01f,-3.71608615e-01f,
    -5.18682599e-02f,-5.71820617e-01f,-1.82346925e-01f,-4.22731847e-01f,-1.54748440e-01f,
    -3.00567776e-01f,+1.83356613e-01f,+5.84406495e-01f,-9.69398674e-03f,+4.63397056e-01f,
    +3.18811923e-01f,-1.83009297e-01f,-4.40258205e-01f,-9.14027989e-02f,+7.16576099e-01f,
    +1.44777730e-01f,-2.31545225e-01f,-7.86211416e-02f,-2.43449196e-01f,-6.76396415e-02f,
    +4.44227792e-02f,+3.49112332e-01f,+5.10351181e-01f,-3.31921130e-02f,-7.03441083e-01f,
    -2.13295951e-01f,+2.05617070e-01f,-2.56060604e-02f,+4.20527488e-01f,-6.89472109e-02f,
    +2.05979884e-01f,+4.98939812e-01f,+1.40947253e-01f,+4.33802724e-01f,+5.03247678e-01f,
    +2.98804998e-01f,+6.62397668e-02f,-2.28191376e-01f,-3.48093122e-01f,-1.01069413e-01f,
    +6.79941714e-01f,-3.82828444e-01f,+3.60678464e-01f,+6.07284233e-02f,+1.13048926e-01f,
    +4.31228667e-01f,-5.40880263e-01f,-3.27615023e-01f,+8.10370028e-01f,+9.92401764e-02f,
    +2.27815554e-01f,-5.31506479e-01f,-1.37949184e-01f,+2.03245044e-01f,+1.55754656e-01f,
    +9.95556414e-02f,-4.94886599e-02f,+1.14583604e-01f,+5.67802191e-01f,-1.17423415e-01f,
    -5.53478062e-01f,-3.20240736e-01f,-2.93277875e-02f,-1.68743998e-01f,+2.22278573e-02f,
    +2.14407131e-01f,+5.66422760e-01f,+8.93347489e-04f,-6.02429330e-01f,+2.78324157e-01f,
    +1.95708290e-01f,-2.63153791e-01f,+1.56939402e-02f,-4.45944577e-01f,-3.06573719e-01f,
    +2.37823844e-01f,-2.03447267e-01f,+4.30536680e-02f,-8.80625173e-02f,+2.39910170e-01f,
    +6.81911707e-02f,+3.45034599e-01f,+2.81614274e-01f,+6.93960428e-01f,-2.66896844e-01f,
    -1.89710096e-01f,+5.71269155e-01f,-3.48202556e-01f,+1.67563558e-01f,-1.43711334e-02f,
    -4.26975101e-01f,+1.44712716e-01f,-1.08400784e-01f,+5.98717071e-02f,+3.20768297e-01f,
    +3.82879227e-02f,+2.00621203e-01f,-3.87284495e-02f,-4.63520378e-01f,-4.31971461e-01f,
    +3.57405126e-01f,-4.07020420e-01f,-1.18355893e-01f,-2.08538794e-03f,-4.77911532e-01f,
    +2.81793118e-01f,-4.69904661e-01f,-6.65418133e-02f,-4.57841642e-02f,-1.76874205e-01f,
    -2.08302036e-01f,-4.36070561e-01f,+1.44521728e-01f,+1.10927470e-01f,-4.72773284e-01f,
    -5.10295272e-01f,+2.84206539e-01f,-8.80155247e-03f,-2.09847182e-01f,+1.89381966e-03f,
    -5.09097159e-01f,}; 
    k2c_tensor conv2d_kernel = {&conv2d_kernel_array[0],4,216,{3,3,3,8,1}}; 
    float conv2d_bias_array[8] = {
    +1.40916765e-01f,-1.17842048e-01f,-3.95998895e-01f,+1.14215143e-01f,+8.11094195e-02f,
    -5.75178191e-02f,+9.82008781e-03f,-1.28845960e-01f,}; 
    k2c_tensor conv2d_bias = {&conv2d_bias_array[0],1,8,{8,1,1,1,1}}; 

    
    size_t max_pooling2d_stride[2] = {2,2}; 
    size_t max_pooling2d_pool_size[2] = {2,2}; 
    float max_pooling2d_output_array[1352] = {0}; 
    k2c_tensor max_pooling2d_output = {&max_pooling2d_output_array[0],3,1352,{13,13, 8, 1, 1}}; 


    size_t conv2d_1_stride[2] = {1,1}; 
    size_t conv2d_1_dilation[2] = {1,1}; 
    float conv2d_1_output_array[1936] = {0}; 
    k2c_tensor conv2d_1_output = {&conv2d_1_output_array[0],3,1936,{11,11,16, 1, 1}}; 
    float conv2d_1_kernel_array[1152] = {
    -1.31119683e-01f,+1.20660774e-01f,+1.42909691e-01f,-1.26802430e-01f,+5.08414507e-01f,
    +3.57374966e-01f,+2.44484857e-01f,-2.11495861e-01f,+1.30367324e-01f,+2.71799445e-01f,
    -2.05920815e-01f,-5.17697275e-01f,+6.58769011e-02f,-7.64527500e-01f,+4.93104607e-01f,
    +1.86765179e-01f,-2.81197965e-01f,+9.66977850e-02f,+1.95540637e-01f,+3.09060782e-01f,
    +1.66030318e-01f,+2.21865878e-01f,-3.36223423e-01f,-5.89649498e-01f,+7.26849213e-02f,
    -9.34294760e-02f,-3.92791510e-01f,-6.36747777e-01f,+3.07703186e-02f,+2.30468009e-02f,
    -3.41355979e-01f,-9.25894901e-02f,-2.49250099e-01f,+2.90296733e-01f,+2.98465878e-01f,
    +1.20816238e-01f,-2.51239777e-01f,-3.25937778e-01f,-5.27312100e-01f,-2.20458731e-01f,
    +7.43271410e-02f,+4.34087455e-01f,+3.28597426e-01f,+5.08793816e-02f,-3.79831523e-01f,
    -3.03528845e-01f,-4.28125083e-01f,-5.45353949e-01f,-1.69770241e-01f,+1.01123478e-04f,
    +3.47237200e-01f,-4.58549351e-01f,-1.96914673e-01f,+4.16622907e-01f,+1.51316285e-01f,
    -2.60278642e-01f,-6.10950589e-01f,-3.70886810e-02f,-1.81299269e-01f,+7.59234801e-02f,
    +1.07284948e-01f,-2.59304523e-01f,+3.43076020e-01f,+1.05357274e-01f,-5.50092280e-01f,
    +8.55999440e-02f,-3.14827085e-01f,-2.12678373e-01f,-1.25465482e-01f,+7.98341185e-02f,
    -3.58589262e-01f,-4.17215144e-03f,-7.84110948e-02f,-4.81294133e-02f,+3.36065024e-01f,
    +2.40965113e-01f,-2.92397439e-01f,+2.45151564e-01f,+1.42373592e-01f,+1.37249202e-01f,
    -8.69383588e-02f,-4.41720903e-01f,-5.37277870e-02f,+2.71365553e-01f,+1.45588428e-01f,
    +3.24923128e-01f,-6.40091240e-01f,+1.10829331e-01f,-1.82846766e-02f,-2.06996873e-01f,
    +1.31211236e-01f,-3.19454111e-02f,-1.85464650e-01f,+2.07263276e-01f,+3.64416808e-01f,
    -1.36080071e-01f,+3.73110145e-01f,+1.61244065e-01f,-9.84749869e-02f,-3.99499565e-01f,
    -7.01937437e-01f,-1.90990269e-01f,+2.10026741e-01f,-1.14361435e-01f,-3.92684489e-01f,
    -4.44424659e-01f,+1.01464242e-01f,+2.06264228e-01f,+2.31933057e-01f,+1.92038268e-01f,
    +2.49858171e-01f,-5.42718530e-01f,+4.02429521e-01f,+7.18158066e-01f,+5.71589284e-02f,
    -1.65163353e-01f,+2.71859527e-01f,+2.57988900e-01f,-7.84250081e-01f,+9.10430923e-02f,
    -3.46873403e-01f,-7.84507990e-01f,-3.59161109e-01f,-6.19703531e-01f,+6.11683652e-02f,
    -2.29496777e-01f,+2.11265180e-02f,+6.46308810e-02f,+2.99789041e-01f,+1.44687817e-01f,
    -4.57740009e-01f,+2.22232774e-01f,+7.79311955e-02f,-3.61505039e-02f,+1.52787656e-01f,
    -2.73586750e-01f,-6.68232664e-02f,+1.80535764e-01f,-2.36866698e-01f,-1.04963012e-01f,
    -1.97272524e-01f,+5.13625622e-01f,-1.08868375e-01f,-1.22966863e-01f,-4.14618194e-01f,
    +1.51297152e-01f,+6.63749218e-01f,+6.55721352e-02f,+2.56690055e-01f,-4.87621039e-01f,
    -1.38410664e+00f,+3.42014313e-01f,+4.35432009e-02f,+4.25091609e-02f,-2.88736105e-01f,
    +4.06679899e-01f,+2.75652558e-01f,+1.63003296e-01f,-4.54043597e-01f,-3.38408276e-02f,
    +7.39286244e-02f,+1.88626990e-01f,+5.13657331e-01f,-8.46389756e-02f,+1.16223156e-01f,
    -2.73280621e-01f,-3.64182770e-01f,-2.64748216e-01f,+4.12557721e-01f,+1.75891042e-01f,
    -2.40628779e-01f,-1.10941105e-01f,+1.25953034e-01f,-1.79729119e-01f,-1.73218921e-02f,
    +5.97648919e-01f,-5.37889957e-01f,-1.31072029e-01f,+4.87688124e-01f,-1.20874310e+00f,
    -2.53810664e-03f,+6.92924112e-02f,+2.08843067e-01f,+2.08455831e-01f,-3.40860486e-01f,
    -2.52486706e-01f,-1.39705744e-03f,-2.58799672e-01f,-2.63282470e-02f,-6.56851888e-01f,
    -2.02161763e-02f,-2.44813398e-01f,+4.37791020e-01f,-4.78344411e-01f,-1.92520708e-01f,
    +1.69628428e-03f,+4.88299914e-02f,+5.92383631e-02f,-4.72457051e-01f,+6.23051882e-01f,
    +4.77646887e-02f,-1.33715227e-01f,+3.58886808e-01f,-4.15441632e-01f,+2.41844222e-01f,
    +6.24713898e-02f,+6.54049933e-01f,-1.99419886e-01f,+2.37253308e-01f,-4.30543929e-01f,
    -1.56722173e-01f,+2.42672771e-01f,-2.97463443e-02f,+2.81465560e-01f,-3.95581067e-01f,
    -4.44371372e-01f,+4.48110461e-01f,-2.05405876e-01f,-5.21068633e-01f,-5.00532866e-01f,
    +1.51381746e-01f,+2.79404461e-01f,-3.85895967e-01f,+2.16315150e-01f,-1.64388008e-02f,
    -6.06276579e-02f,-3.31597418e-01f,-1.32159574e-03f,-4.69709069e-01f,+7.45816976e-02f,
    +1.36364967e-01f,+1.77437708e-01f,+2.00227246e-01f,-5.67093372e-01f,+7.52624497e-02f,
    +1.13876738e-01f,+9.56511572e-02f,+2.25187972e-01f,+6.67249784e-02f,+4.16760221e-02f,
    -1.30012557e-01f,-2.90623844e-01f,-2.10644335e-01f,+2.72180915e-01f,+1.04157329e+00f,
    -2.97884852e-01f,+2.76831370e-02f,+4.29168463e-01f,+7.29465708e-02f,+2.47513548e-01f,
    -3.23321790e-01f,+3.78657907e-01f,-3.04283407e-02f,-2.29963198e-01f,-4.93569858e-02f,
    -1.21557426e+00f,+1.13465406e-01f,-3.52076858e-01f,-1.18641250e-01f,+5.47152990e-03f,
    -7.02167675e-02f,-4.31943208e-01f,+1.61522999e-01f,+2.73455948e-01f,-3.43471050e-01f,
    +3.20237815e-01f,+7.12964177e-01f,+3.01103085e-01f,+1.75189465e-01f,+1.87044814e-01f,
    -9.82712861e-03f,-1.76153779e-01f,-3.91156763e-01f,+3.89367014e-01f,+2.52034366e-01f,
    -1.83481246e-01f,-4.34641093e-01f,+1.55377597e-01f,-6.95645332e-01f,+2.00644344e-01f,
    -2.34059840e-01f,-4.94163036e-02f,-1.17346811e+00f,+1.43478721e-01f,-7.31910840e-02f,
    +6.87306643e-01f,+9.11619425e-01f,-4.13312852e-01f,-1.47212029e-01f,+2.55147278e-01f,
    -3.28461751e-02f,-6.71714365e-01f,+3.32910657e-01f,-1.34102240e-01f,-1.39606982e-01f,
    +1.66406427e-02f,-1.83057204e-01f,-2.17086896e-01f,-4.24919352e-02f,-3.84200886e-02f,
    +3.95716876e-01f,-2.06924975e-01f,-1.09099351e-01f,-1.21826857e-01f,-1.56078577e-01f,
    +2.84634888e-01f,-5.61492026e-01f,+1.68531835e-01f,-1.70362964e-01f,+2.92856455e-01f,
    +4.29561406e-01f,-1.17363453e-01f,+1.76191807e-01f,+3.16248775e-01f,-1.68606281e-01f,
    -1.22007929e-01f,-6.12964451e-01f,+2.43872195e-01f,-2.42052257e-01f,+9.93802100e-02f,
    -9.59872007e-02f,+6.52089864e-02f,-4.28967066e-02f,+5.77379465e-02f,+8.74937251e-02f,
    +2.04434022e-01f,-9.87569988e-01f,-3.10010582e-01f,-9.95407850e-02f,-2.27828801e-01f,
    -1.39923573e-01f,-9.28774953e-01f,+2.97002971e-01f,-1.60900727e-02f,+6.96011037e-02f,
    -1.74338520e-01f,+8.20706040e-02f,+2.13592112e-01f,-4.93264943e-01f,+8.81616920e-02f,
    +2.27620304e-02f,-1.29547477e-01f,-3.12096626e-01f,+1.37275964e-01f,-1.09373927e+00f,
    +2.26386860e-01f,-9.03552353e-01f,+2.69299507e-01f,+2.95013487e-02f,+2.09404272e-04f,
    +5.37615955e-01f,-6.16020858e-01f,-5.54651141e-01f,-8.03708375e-01f,-2.63282028e-03f,
    -3.96847352e-03f,+7.65328705e-01f,-1.31257117e-01f,-9.99792144e-02f,-2.20016718e-01f,
    +3.45133603e-01f,-1.41784459e-01f,-1.17885403e-01f,+2.49426607e-02f,+6.81785587e-03f,
    -1.07985228e-01f,+1.44052550e-01f,-5.56077436e-02f,-8.75920951e-02f,-4.81084213e-02f,
    -5.64954579e-01f,+4.09757137e-01f,-9.56757545e-01f,+1.90630704e-01f,-8.21530968e-02f,
    +6.34083092e-01f,-2.60903716e-01f,-3.45148504e-01f,+2.95347452e-01f,+2.13524222e-01f,
    -5.05942702e-01f,+3.69305819e-01f,+1.08817331e-01f,+2.12192554e-02f,-7.49843001e-01f,
    -3.51566941e-01f,+4.53511300e-03f,+2.05904439e-01f,-1.45565674e-01f,-1.86107963e-01f,
    -5.07147089e-02f,+7.13923201e-02f,+1.40967399e-01f,+1.66334748e-01f,+9.41090137e-02f,
    +2.10502848e-01f,-9.80754197e-01f,-1.26019859e+00f,-2.46238913e-02f,+2.36906499e-01f,
    +3.61686319e-01f,-2.91209698e-01f,-1.19928017e-01f,-1.14981346e-02f,-2.91497201e-01f,
    -6.71818495e-01f,+3.54898460e-02f,-6.18709385e-01f,+1.76921263e-01f,-8.19438621e-02f,
    -4.46139872e-01f,-9.71317291e-02f,+1.40979901e-01f,-1.14777374e+00f,+8.09258446e-02f,
    +4.35338736e-01f,+3.69627893e-01f,-6.40911162e-01f,-2.92719174e-02f,+7.50945881e-02f,
    -2.79948831e-01f,+1.67466581e-01f,-7.85811782e-01f,-8.14666033e-01f,+2.00585797e-02f,
    -2.13623136e-01f,-4.77169901e-01f,-8.08670282e-01f,-2.41467863e-01f,-1.00381404e-01f,
    +1.07886165e-01f,+1.49240643e-01f,+6.43069297e-02f,+1.40507042e-01f,-3.92503798e-01f,
    +3.93431157e-01f,+1.99437335e-01f,+3.01808327e-01f,-6.10148191e-01f,+1.72607020e-01f,
    +1.40654832e-01f,-3.83103639e-02f,-4.21568751e-02f,+1.42425799e-03f,+1.18690291e-02f,
    -3.82761598e-01f,-2.63175547e-01f,-2.16353551e-01f,+6.94151074e-02f,+9.53125581e-02f,
    +2.12352589e-01f,-2.01403946e-01f,-1.35413140e-01f,-1.08988428e+00f,-7.04268038e-01f,
    +1.22679673e-01f,+2.17643946e-01f,+7.87058249e-02f,-3.87214869e-01f,-7.27067351e-01f,
    -2.01665074e-01f,+2.98453122e-01f,+1.13387980e-01f,+9.89887714e-02f,+1.72328845e-01f,
    -1.79904565e-01f,-5.75424060e-02f,+1.91843938e-02f,+1.72132879e-01f,+2.57974207e-01f,
    +3.11347246e-01f,-6.08483478e-02f,-1.53979763e-01f,+1.69156760e-01f,+3.07476193e-01f,
    +5.57395704e-02f,-4.27296191e-01f,-4.64579970e-01f,+2.35170409e-01f,-3.09235215e-01f,
    -3.09775501e-01f,+5.61085679e-02f,+9.66425762e-02f,-2.80778646e-01f,+7.15572089e-02f,
    -5.64774990e-01f,+2.54567087e-01f,-1.91070903e-02f,-1.87071249e-01f,-4.83681381e-01f,
    -4.34440255e-01f,+2.29806140e-01f,+3.02698642e-01f,-2.58729160e-01f,-1.13714464e-01f,
    +3.35881151e-02f,-8.54843557e-01f,+9.49118286e-02f,-5.05005121e-01f,+3.20341557e-01f,
    +2.55184084e-01f,-1.94129288e-01f,-6.32063439e-03f,-1.58130109e-01f,+3.00911725e-01f,
    +7.43022487e-02f,+7.45041966e-02f,-5.44997692e-01f,+7.85927996e-02f,-3.82280469e-01f,
    +5.14682651e-01f,+2.20236294e-02f,-1.30956993e-01f,+1.84072465e-01f,-1.31588221e-01f,
    -5.16442675e-03f,+2.09441110e-02f,+2.02384040e-01f,+2.96653152e-01f,-3.98676336e-01f,
    +1.45162702e-01f,+2.33632609e-01f,-3.44921112e-01f,+4.18245524e-01f,+2.41459563e-01f,
    +4.25293297e-01f,-3.26280892e-02f,+4.75295663e-01f,-3.73860329e-01f,-3.01274210e-01f,
    +3.84733021e-01f,-4.54132445e-02f,-2.54809391e-02f,+7.92592704e-01f,-7.24031389e-01f,
    +4.14923728e-02f,+2.93651852e-03f,+5.07749915e-01f,+2.68399566e-01f,-7.06767261e-01f,
    -7.53177285e-01f,-1.31424770e-01f,-3.77593398e-01f,-1.66685119e-01f,+7.30733499e-02f,
    +3.15096766e-01f,+2.26561219e-01f,-1.60931155e-01f,-1.36550084e-01f,+5.98073006e-01f,
    -2.20718771e-01f,+1.53047770e-01f,+2.42876589e-01f,+7.53383934e-02f,-6.55302852e-02f,
    +7.80474246e-02f,+3.71113390e-01f,-5.12313247e-01f,-4.40753371e-01f,-3.11445773e-01f,
    +1.31931044e-02f,+4.38227057e-02f,+3.00799906e-01f,-3.33280265e-02f,-2.97971107e-02f,
    -2.41428733e-01f,+7.21980631e-02f,-5.81538439e-01f,-1.70836195e-01f,-6.90084875e-01f,
    +3.03341657e-01f,-5.13216436e-01f,-4.32848483e-01f,-3.06395978e-01f,-8.32572460e-01f,
    +3.25200498e-01f,+3.74247193e-01f,-3.85968924e-01f,+1.77821442e-01f,+1.44761428e-01f,
    +7.92284906e-02f,-3.20584774e-01f,-9.96536374e-01f,+8.32349136e-02f,-2.36850053e-01f,
    -1.08820945e-02f,-4.52668488e-01f,+9.35709178e-02f,+3.74768153e-02f,+7.47112557e-02f,
    -1.67548522e-01f,-2.21839100e-01f,-3.38476114e-02f,+6.06140137e-01f,-4.33734089e-01f,
    +1.68159939e-02f,-2.69072264e-01f,+3.22775468e-02f,-5.60016930e-01f,-1.88605458e-01f,
    +3.92194808e-01f,+6.30025864e-02f,+3.10982168e-01f,+1.54728502e-01f,+3.41497719e-01f,
    -2.39105284e-01f,-6.77506626e-01f,+3.40140313e-01f,+4.99385037e-02f,-6.90470517e-01f,
    +1.53542385e-01f,+4.37279157e-02f,-6.03025675e-01f,-1.14453959e+00f,-7.64494985e-02f,
    +5.28570823e-02f,-1.73971519e-01f,-8.02419722e-01f,+1.61044434e-01f,-5.80148399e-01f,
    -3.11761796e-01f,+1.22889303e-01f,+2.51235217e-01f,+1.46278352e-01f,-5.05172074e-01f,
    -3.09143793e-02f,+5.71932018e-01f,+6.99351728e-01f,-1.07944512e+00f,-2.24043652e-01f,
    -1.70148730e-01f,-2.12449655e-01f,+4.99679968e-02f,-1.22891292e-01f,+4.01977189e-02f,
    +1.94545001e-01f,+6.06288850e-01f,+2.47630745e-01f,-6.37423873e-01f,-9.25578922e-02f,
    +2.54221499e-01f,+5.35782337e-01f,+1.84921231e-02f,+6.46571890e-02f,-2.71876186e-01f,
    +4.98097271e-01f,-1.56199955e-03f,+1.85536876e-01f,-4.85524476e-01f,+3.03914309e-01f,
    +1.08226210e-01f,+1.13989182e-01f,-2.21746489e-01f,+1.14734903e-01f,-3.03933024e-02f,
    -7.24008262e-01f,-4.81971920e-01f,+5.31689031e-04f,-3.66315037e-01f,-2.51650661e-01f,
    +4.20318067e-01f,+1.93629131e-01f,-1.11001834e-01f,-5.59729457e-01f,+3.53858560e-01f,
    +2.25482121e-01f,-8.38963687e-02f,-3.78261432e-02f,+1.75576404e-01f,+1.34911239e-01f,
    -2.28375882e-01f,-6.80455804e-01f,+2.42628098e-01f,-1.42711967e-01f,-1.51304424e-01f,
    -9.19078827e-01f,+2.35888496e-01f,-5.69475181e-02f,+4.36622128e-02f,+2.19173264e-02f,
    -9.02161840e-03f,+2.64898986e-01f,+5.06432615e-02f,+3.64948928e-01f,+1.13042347e-01f,
    +5.87551832e-01f,-3.48578840e-01f,-5.43121338e-01f,+1.79118559e-01f,-1.73177630e-01f,
    +1.61564443e-02f,+3.48705441e-01f,-4.24468249e-01f,-4.19835329e-01f,-3.30883376e-02f,
    +2.11503915e-02f,+2.58150071e-01f,-5.14010787e-01f,-7.66694188e-01f,-5.14670730e-01f,
    -7.43361562e-02f,-4.21977878e-01f,-2.09453091e-01f,+2.61557281e-01f,-2.88419873e-01f,
    -1.71217084e-01f,+3.47578883e-01f,+3.61980796e-01f,-1.49037659e-01f,-4.50225323e-01f,
    +5.74895851e-02f,-2.17705905e-01f,-1.37078136e-01f,+7.80577436e-02f,-2.94751972e-01f,
    -1.24875748e+00f,-5.15348613e-02f,+9.07674879e-02f,-3.13632637e-01f,-2.18937322e-01f,
    +1.03863560e-01f,-3.21815945e-02f,-1.04172856e-01f,+2.47831911e-01f,+9.30336714e-02f,
    +3.10544342e-01f,+4.43634331e-01f,+2.04250395e-01f,+7.30686188e-02f,-3.81295145e-01f,
    -3.85114461e-01f,-3.03810984e-01f,-2.18664199e-01f,+4.35896754e-01f,+4.22744304e-01f,
    -3.14632148e-01f,-3.67181629e-01f,+8.89319852e-02f,+1.72117010e-01f,+1.23201594e-01f,
    -1.50786951e-01f,+4.66607034e-01f,-8.58526945e-01f,-3.70110542e-01f,+2.66481549e-01f,
    -8.06597114e-01f,+2.89846584e-02f,-2.56117821e-01f,-3.26547921e-02f,-1.78734642e-02f,
    -1.56935766e-01f,-1.24544926e-01f,-3.23367536e-01f,+4.10159051e-01f,+2.85804987e-01f,
    +1.85850307e-01f,+8.15931559e-01f,-6.03621304e-01f,-2.91712433e-01f,-8.65512937e-02f,
    -1.00933194e+00f,-5.73169947e-01f,+3.91102791e-01f,+5.15769608e-02f,-7.04649746e-01f,
    -3.70369375e-01f,+1.45879164e-01f,+2.96402752e-01f,-4.94621187e-01f,-2.76895463e-01f,
    -9.74380132e-03f,+2.43724510e-01f,-6.03714399e-02f,-1.05889700e-01f,-2.53794473e-02f,
    -7.31285242e-03f,+5.04699945e-01f,-2.04060450e-01f,+1.71121642e-01f,+2.26074204e-01f,
    +1.64950155e-02f,-2.47968864e-02f,-4.63520526e-04f,-2.10318252e-01f,-2.31892720e-01f,
    +2.77386338e-01f,-6.32818162e-01f,-6.02995977e-03f,-4.56281096e-01f,-1.02733493e-01f,
    -1.83980465e-01f,-9.30336297e-01f,-1.49412125e-01f,+2.33472399e-02f,-6.34847581e-01f,
    +2.39484653e-01f,-3.77777904e-01f,-6.99935555e-01f,+3.43354344e-01f,-6.33853227e-02f,
    -6.12735808e-01f,-1.08487353e-01f,-4.34079975e-01f,+1.46635070e-01f,+3.26801799e-02f,
    +1.20043181e-01f,-8.14049244e-01f,+6.46462059e-03f,+1.35372460e-01f,+1.73441052e-01f,
    +3.37281287e-01f,-3.26648891e-01f,-1.89035445e-01f,-4.92905006e-02f,+2.55279809e-01f,
    +2.07472950e-01f,+2.37690628e-01f,-5.97090244e-01f,+1.19474530e-01f,+3.86754036e-01f,
    +3.72013539e-01f,+3.23797256e-01f,-2.27398530e-01f,-5.38911410e-02f,-1.45782545e-01f,
    -3.58658314e-01f,-2.04144269e-02f,-2.69262008e-02f,-4.18716967e-02f,+4.30841111e-02f,
    -1.00346005e+00f,+2.63149105e-02f,-1.25483617e-01f,-1.19512565e-01f,+3.77511472e-01f,
    -3.05795342e-01f,-1.22880645e-01f,-4.73397583e-01f,+2.22097948e-01f,-6.62668049e-02f,
    -1.42733213e-02f,-6.34829625e-02f,-8.31833065e-01f,-4.63510126e-01f,+3.06500793e-01f,
    -2.01928727e-02f,+2.08963141e-01f,+4.70408291e-01f,-2.46220946e-01f,+2.29642451e-01f,
    +2.76827991e-01f,+1.10135056e-01f,-5.57526946e-02f,+8.32841545e-03f,+1.06984235e-01f,
    -3.95087481e-01f,-2.30315059e-01f,+3.56858909e-01f,-9.18378681e-03f,+6.17930070e-02f,
    +1.01302661e-01f,-1.17915973e-01f,+5.80209196e-01f,+6.75260782e-01f,+8.14131573e-02f,
    -2.62949616e-01f,-2.66953140e-01f,-6.56380117e-01f,+3.61341208e-01f,+6.56929255e-01f,
    +5.86885996e-02f,-9.01410636e-03f,-1.30175829e-01f,+1.60282880e-01f,-2.18697265e-01f,
    -3.25930188e-03f,+1.77333191e-01f,+1.78815782e-01f,-2.29607821e-02f,-2.25636782e-03f,
    -7.77203619e-01f,-8.97029489e-02f,+1.31980583e-01f,-9.66886878e-02f,+1.34293899e-01f,
    -7.40209699e-01f,-4.85057652e-01f,+3.49229544e-01f,+2.32746303e-01f,+3.11870098e-01f,
    -3.33444506e-01f,+6.32110178e-01f,-5.76174706e-02f,-1.22392647e-01f,+5.66261709e-01f,
    -5.49673140e-01f,-3.91548038e-01f,+1.60014778e-02f,-6.53035715e-02f,+1.37059130e-02f,
    -6.26077801e-02f,+1.79250196e-01f,+1.93176553e-01f,-2.33528718e-01f,+2.31504902e-01f,
    -3.15505862e-01f,+9.05653238e-02f,-1.81214422e-01f,+4.98538345e-01f,-8.25998247e-01f,
    +2.93717664e-02f,+1.66980084e-02f,-7.26816654e-02f,+3.40531886e-01f,+3.66659224e-01f,
    -3.79831016e-01f,-2.61642337e-01f,+2.47409984e-01f,-4.24673647e-01f,+1.01287596e-01f,
    +4.48691882e-02f,+1.64106920e-01f,+8.79221261e-02f,+2.98749894e-01f,+4.02492374e-01f,
    +1.25941709e-01f,+1.29546553e-01f,+3.12433839e-01f,-3.10425520e-01f,-1.78523585e-01f,
    -3.95287007e-01f,+3.32046390e-01f,-1.96678802e-01f,+9.12835747e-02f,-4.05702889e-02f,
    +5.43868959e-01f,-3.13085169e-01f,-1.82919264e-01f,+2.75331467e-01f,+2.22962052e-01f,
    +1.95830427e-02f,-1.39171481e-01f,-1.50565505e-01f,+7.96986103e-01f,+8.60437527e-02f,
    -3.67994994e-01f,+2.70523101e-01f,+2.33999357e-01f,+2.73304522e-01f,+1.31906211e-01f,
    -1.27977744e-01f,+1.21988758e-01f,-3.32907826e-01f,-4.84429181e-01f,-4.42994833e-01f,
    +2.98649957e-03f,-5.64570948e-02f,-7.27673709e-01f,-5.79152584e-01f,-5.59900045e-01f,
    -7.31461570e-02f,-7.25530982e-02f,+4.64521050e-01f,+2.84746289e-01f,-2.11474448e-01f,
    +4.71317351e-01f,-6.79597497e-01f,+1.08173817e-01f,-2.72575796e-01f,+4.78868224e-02f,
    -7.85561800e-02f,-3.09699755e-02f,-4.31411207e-01f,-1.32631406e-01f,-3.98921311e-01f,
    +3.24800074e-01f,-1.71081722e-01f,-7.77955130e-02f,+2.34010313e-02f,-3.21769983e-01f,
    +2.60253429e-01f,-9.39193442e-02f,+9.84358191e-02f,+7.33789355e-02f,-3.99586380e-01f,
    -2.24880293e-01f,+4.99340951e-01f,-1.54775694e-01f,-3.92732888e-01f,+1.63687930e-01f,
    -4.23358083e-01f,+2.26332426e-01f,+3.39833587e-01f,-4.73704547e-01f,-6.59178272e-02f,
    +2.15515979e-02f,-5.14378726e-01f,-4.76268440e-01f,-1.11865416e-01f,-4.05183174e-02f,
    -3.64129126e-01f,+1.52176013e-03f,-2.42882535e-01f,-2.52206415e-01f,-7.44808137e-01f,
    +3.34980786e-01f,-2.80299634e-01f,+1.98044509e-01f,+6.91623032e-01f,+6.78211689e-01f,
    +2.75593340e-01f,-2.51545966e-01f,-9.25095305e-02f,+7.92751133e-01f,+4.42060471e-01f,
    -1.34748712e-01f,+1.88084617e-01f,-5.17641902e-01f,-1.32428296e-02f,+5.17128371e-02f,
    -2.55963326e-01f,-1.44054005e-02f,-2.85459936e-01f,+1.03863858e-01f,+5.32947898e-01f,
    +1.37788758e-01f,+2.53337711e-01f,-2.12445349e-01f,+5.53175688e-01f,-5.48288971e-02f,
    +1.98301626e-03f,+5.75126767e-01f,-2.14868560e-01f,-1.84079111e-01f,+1.15224975e-03f,
    -3.07728380e-01f,+7.57717341e-02f,+5.22058189e-01f,+3.40088487e-01f,-7.67843246e-01f,
    -4.75437671e-01f,-1.39433935e-01f,-9.99081373e-01f,-1.23962373e-01f,+1.00707978e-01f,
    -2.79893994e-01f,-4.68108654e-01f,-3.08866829e-01f,+2.09709585e-01f,+2.87569076e-01f,
    +5.25277495e-01f,-1.16001278e-01f,-1.60364062e-01f,-2.33616635e-01f,-1.46792337e-01f,
    +1.93363294e-01f,-3.26860547e-01f,+6.09258600e-02f,-2.53049314e-01f,-5.17385244e-01f,
    +6.81461036e-01f,+3.80053073e-02f,+3.23325068e-01f,+3.76021981e-01f,-3.72516304e-01f,
    -3.43764909e-02f,-3.79471689e-01f,-2.68898427e-01f,-5.19428372e-01f,-1.27468966e-02f,
    +3.95410687e-01f,-1.15799832e+00f,+2.75512367e-01f,-2.81020314e-01f,+1.75417110e-01f,
    -1.52198613e-01f,+8.44538584e-02f,-1.10032761e+00f,-1.65984958e-01f,-2.39984900e-01f,
    +3.27592760e-01f,-6.80826128e-01f,-6.94578514e-02f,+2.63366014e-01f,+3.28648537e-01f,
    -3.96017462e-01f,-1.47038743e-01f,+7.71521870e-03f,-5.04803836e-01f,+5.80425188e-02f,
    +5.43054700e-01f,+4.44555640e-01f,-4.99077201e-01f,+4.36577231e-01f,+5.03220409e-02f,
    -6.86173379e-01f,+1.65471919e-02f,-1.17472701e-01f,-3.45187336e-01f,-2.77998388e-01f,
    -3.98055255e-01f,+1.67473212e-01f,+2.27661729e-01f,+3.93373668e-01f,+3.38642687e-01f,
    +1.53312668e-01f,+7.96310753e-02f,+4.15755212e-02f,+2.56473571e-01f,-4.40535665e-01f,
    -1.03417613e-01f,+2.67357081e-01f,+5.34112930e-01f,+5.51627994e-01f,+3.01856846e-01f,
    +2.74358124e-01f,+1.32276550e-01f,+2.36669958e-01f,+2.21672982e-01f,-8.46890092e-01f,
    -2.18075529e-01f,-4.59210724e-01f,+2.12673340e-02f,+2.90715605e-01f,-4.88380969e-01f,
    +5.52429967e-02f,-3.79562229e-01f,-5.54996729e-01f,-1.90271869e-01f,+5.91096431e-02f,
    +1.87476754e-01f,+1.82744488e-01f,-1.05747759e-01f,-2.56320745e-01f,-3.94107431e-01f,
    -3.43549959e-02f,+3.52008104e-01f,+3.31107080e-01f,+7.67227709e-02f,+2.18986720e-01f,
    -5.92630386e-01f,-6.78051293e-01f,-4.48689125e-02f,+3.11911196e-01f,-1.42884696e+00f,
    -1.13462329e+00f,-1.95184588e-01f,-7.14365780e-01f,-2.73305118e-01f,+2.09713206e-01f,
    +1.20933995e-01f,+1.04900867e-01f,}; 
    k2c_tensor conv2d_1_kernel = {&conv2d_1_kernel_array[0],4,1152,{ 3, 3, 8,16, 1}}; 
    float conv2d_1_bias_array[16] = {
    -4.45223413e-02f,-3.90869707e-01f,+2.75468524e-03f,+2.60686100e-01f,-1.21022440e-01f,
    -2.78998643e-01f,+1.82453319e-01f,+2.32522227e-02f,-1.81934461e-01f,-3.32112223e-01f,
    +9.65199992e-02f,-2.85824060e-01f,-1.18594334e-01f,-2.64176577e-01f,+7.19629005e-02f,
    -1.30468518e-01f,}; 
    k2c_tensor conv2d_1_bias = {&conv2d_1_bias_array[0],1,16,{16, 1, 1, 1, 1}}; 

    
    size_t max_pooling2d_1_stride[2] = {2,2}; 
    size_t max_pooling2d_1_pool_size[2] = {2,2}; 
    float max_pooling2d_1_output_array[400] = {0}; 
    k2c_tensor max_pooling2d_1_output = {&max_pooling2d_1_output_array[0],3,400,{ 5, 5,16, 1, 1}}; 


    size_t conv2d_2_stride[2] = {1,1}; 
    size_t conv2d_2_dilation[2] = {1,1}; 
    float conv2d_2_output_array[288] = {0}; 
    k2c_tensor conv2d_2_output = {&conv2d_2_output_array[0],3,288,{ 3, 3,32, 1, 1}}; 
    float conv2d_2_kernel_array[4608] = {
    +3.91853988e-01f,-2.09821358e-01f,+3.21621150e-01f,+2.25106761e-01f,-4.09188330e-01f,
    +6.01385295e-01f,-9.36252773e-02f,-2.32286349e-01f,+5.95595837e-01f,-1.10304259e-01f,
    +5.64404607e-01f,-5.19896567e-01f,-3.45551401e-01f,+3.45595658e-01f,-5.80295146e-01f,
    +5.15190780e-01f,+5.56446731e-01f,+7.16048658e-01f,-3.85718882e-01f,-2.58095682e-01f,
    -5.19965947e-01f,+6.93477154e-01f,+4.51271087e-01f,+1.00192502e-01f,+3.12789321e-01f,
    -6.15444779e-02f,-1.06744759e-01f,+5.31345010e-01f,-6.60073042e-01f,+3.10461223e-01f,
    +5.68588197e-01f,+5.16721845e-01f,+6.31342947e-01f,+4.91155013e-02f,-1.57886613e-02f,
    -2.38337323e-01f,+5.07651642e-02f,-1.63805589e-01f,+8.41072351e-02f,-2.25951344e-01f,
    -1.02016956e-01f,+1.28661826e-01f,-4.52506281e-02f,+3.52897763e-01f,+1.05813973e-01f,
    -2.00382531e-01f,-4.71009016e-01f,+4.28280886e-03f,-2.56716996e-01f,-5.42753860e-02f,
    +9.50056762e-02f,-2.48277605e-01f,+1.01496138e-01f,+4.81450200e-01f,-3.47601548e-02f,
    -5.42107485e-02f,-2.07816273e-01f,+6.07901514e-02f,+1.94510475e-01f,-1.59317330e-02f,
    +1.31461665e-03f,-2.30380267e-01f,-1.45424828e-01f,-2.16633707e-01f,-6.04787409e-01f,
    +4.71297130e-02f,+3.72844815e-01f,-5.33346757e-02f,+2.20487669e-01f,+2.07153663e-01f,
    +4.95077707e-02f,-1.77706763e-01f,+3.25546533e-01f,-2.57087294e-02f,+3.29287320e-01f,
    -1.20881096e-01f,+1.09044589e-01f,+2.22989291e-01f,-1.33309022e-01f,+3.57672125e-01f,
    +2.18736872e-01f,+1.99908465e-01f,-2.34000474e-01f,+1.69700906e-01f,-8.85239989e-02f,
    -1.08688383e-03f,+2.36760274e-01f,+5.11211567e-02f,+2.64091909e-01f,-7.94145092e-02f,
    +2.18372736e-02f,+2.85532683e-01f,+9.39281434e-02f,+2.48448715e-01f,+3.47525537e-01f,
    +3.18420142e-01f,+2.33889952e-01f,+1.79265305e-01f,+4.26666439e-01f,-1.38309851e-01f,
    +3.21631372e-01f,+8.16825107e-02f,-3.24246474e-03f,+3.53461355e-02f,+1.72855049e-01f,
    +1.60832986e-01f,+9.54110846e-02f,+7.74576217e-02f,+2.55977571e-01f,+1.39731625e-02f,
    -1.90528601e-01f,+4.33598831e-03f,+1.26503050e-01f,+1.32740289e-01f,+1.46477044e-01f,
    +5.41436374e-02f,+1.15467794e-01f,-6.17188394e-01f,-2.22909693e-02f,-1.00891292e-01f,
    +4.65648919e-02f,-7.15995282e-02f,+3.06042224e-01f,+1.24561712e-01f,+2.16609627e-01f,
    -6.02468401e-02f,-3.36631835e-02f,+8.88841599e-02f,-3.85950089e-01f,-3.83572727e-01f,
    +4.45188224e-01f,-1.62479639e-01f,-2.99378276e-01f,+2.51337051e-01f,-7.83419311e-01f,
    -3.51493478e-01f,+1.09339617e-01f,-2.83215284e-01f,+1.73686087e-01f,+5.63040096e-03f,
    -2.78363734e-01f,+1.60387680e-01f,-5.05903065e-01f,+1.02757923e-01f,+5.82277514e-02f,
    +2.20593780e-01f,-1.18290342e-01f,-6.17641568e-01f,-1.35543421e-01f,+1.42462865e-01f,
    +1.06158294e-01f,-1.47671148e-01f,+2.39733830e-01f,-2.12181043e-02f,-2.91365117e-01f,
    +9.18577835e-02f,-1.77840903e-01f,+7.42730498e-02f,+2.27602571e-01f,+1.56867296e-01f,
    +8.21469724e-02f,-5.82396328e-01f,+1.00012243e+00f,+8.20803165e-01f,-5.26835203e-01f,
    +7.16379702e-01f,-8.10357094e-01f,-5.51797032e-01f,+7.58259535e-01f,-6.22131586e-01f,
    +6.11560643e-01f,-5.86776614e-01f,-4.85668093e-01f,+7.62578845e-01f,-7.01931596e-01f,
    +5.13487935e-01f,+7.39140153e-01f,+6.38026297e-01f,-5.85429251e-01f,-8.70397270e-01f,
    -5.17555058e-01f,+5.70485473e-01f,+7.37892389e-01f,-1.37603849e-01f,+6.32328451e-01f,
    -4.96695563e-02f,-6.04446292e-01f,+6.25928760e-01f,-5.93771636e-01f,+7.46400237e-01f,
    +6.09423161e-01f,+6.59488142e-01f,-3.15891579e-02f,+2.27467522e-01f,-6.88350201e-01f,
    +3.96220565e-01f,+2.19997421e-01f,-2.69618095e-03f,+7.91999772e-02f,+4.80063289e-01f,
    -8.59869793e-02f,+4.50725406e-01f,-3.84050980e-03f,+1.19155005e-01f,+1.71028376e-01f,
    -1.25934213e-01f,+4.69681680e-01f,+9.91135603e-05f,-8.98814425e-02f,+2.31673896e-01f,
    +5.13025224e-01f,+9.32326391e-02f,+6.39888704e-01f,+2.65028447e-01f,+1.01186559e-01f,
    -5.67272231e-02f,-9.34826881e-02f,+4.72521782e-02f,+4.22396034e-01f,-8.20547435e-03f,
    +7.88074970e-01f,-1.14393458e-01f,-2.67033093e-02f,+7.70277306e-02f,+2.94811249e-01f,
    +1.93722486e-01f,+5.24872169e-02f,-3.32609266e-01f,-7.58876726e-02f,-1.63270220e-01f,
    +4.90583107e-02f,+3.62389624e-01f,-2.62494832e-01f,+2.65517414e-01f,-2.69624442e-01f,
    +1.94713324e-01f,+7.34193102e-02f,-2.74198413e-01f,+2.60986656e-01f,-1.74459055e-01f,
    -1.88055485e-01f,-8.43087286e-02f,+3.13581586e-01f,+1.93007141e-01f,+7.31586397e-01f,
    -2.26736262e-01f,-2.19276771e-01f,-2.86475476e-02f,-2.20368832e-01f,-1.22604966e-02f,
    +2.39923611e-01f,-2.74417967e-01f,+6.61280930e-01f,-3.92517388e-01f,-3.26254010e-01f,
    -2.39611149e-01f,-3.53472918e-01f,-1.98439993e-02f,+7.22474277e-01f,+2.87191927e-01f,
    -3.59206975e-01f,+2.46018261e-01f,-4.59457397e-01f,-3.22532170e-02f,+2.15024963e-01f,
    -1.03803881e-01f,+1.81451187e-01f,+1.35225281e-02f,-2.21074075e-01f,+1.94426268e-01f,
    -3.45395744e-01f,+2.42351681e-01f,+1.41562343e-01f,+6.04184568e-01f,-4.50775363e-02f,
    -6.56993449e-01f,-4.61558104e-02f,-8.86903465e-01f,+2.17885137e-01f,+1.50608625e-02f,
    +2.17975989e-01f,-6.07278943e-02f,-1.30149141e-01f,+3.56789291e-01f,-2.63807643e-02f,
    +3.18652391e-01f,+2.61880666e-01f,+2.96637118e-01f,-5.36321223e-01f,-6.56103492e-01f,
    +5.58685064e-01f,-9.91949216e-02f,-6.98973954e-01f,-6.83473097e-03f,-1.12287545e+00f,
    -3.23555887e-01f,-7.08040148e-02f,-9.16499019e-01f,+2.52448600e-02f,+1.59687534e-01f,
    -7.35782623e-01f,-8.14070255e-02f,-1.84404433e-01f,+1.80410519e-02f,+2.54792571e-02f,
    +1.77170247e-01f,-6.31874427e-02f,-8.61426950e-01f,-1.43976629e-01f,-1.33840382e-01f,
    +7.22562447e-02f,-6.34917691e-02f,+6.89337328e-02f,+6.53394833e-02f,-1.13696444e+00f,
    -8.08182135e-02f,-3.52793895e-02f,+4.89094220e-02f,+1.10965833e-01f,+7.35486224e-02f,
    -2.29666978e-01f,-1.86393201e-01f,+3.85376394e-01f,+4.89500612e-01f,+3.58499326e-02f,
    +4.52773839e-01f,-4.83135730e-02f,-3.17821920e-01f,+2.47647017e-01f,-1.65835664e-01f,
    +3.61999393e-01f,-4.35331851e-01f,-2.14073434e-01f,+3.94135326e-01f,-9.52152163e-03f,
    +3.15439880e-01f,+3.29496711e-01f,+3.56998384e-01f,-4.52933669e-01f,-4.08228450e-02f,
    -3.19309294e-01f,-2.59025991e-01f,+2.58324951e-01f,-4.05175276e-02f,+4.14499760e-01f,
    -1.11870505e-01f,-4.05022115e-01f,+4.18504983e-01f,-6.27057016e-01f,+3.13760608e-01f,
    +2.09093794e-01f,+2.48406217e-01f,-7.23772943e-01f,+3.39141935e-02f,+1.02379091e-01f,
    +1.36119783e-01f,+1.27063449e-02f,+1.51937217e-01f,-9.48055089e-02f,+2.34635323e-01f,
    +2.58553326e-01f,+1.25223815e-01f,+3.12951475e-01f,-5.21682538e-02f,+1.95866331e-01f,
    +2.95107067e-01f,+8.78013968e-02f,+2.70367712e-01f,+2.37902179e-01f,+2.86309540e-01f,
    -1.33508012e-01f,-9.09767821e-02f,+1.29181787e-01f,+1.55646935e-01f,+1.58295870e-01f,
    -4.75623459e-02f,+2.99211919e-01f,-5.77620193e-02f,+2.51670837e-01f,+1.88899502e-01f,
    +1.07759394e-01f,+1.22070670e-01f,+3.28133374e-01f,+3.17427039e-01f,-4.38542962e-01f,
    +1.04649216e-01f,-6.80286646e-01f,-1.67947829e-01f,+1.51361451e-01f,+2.74507422e-03f,
    -3.46485823e-01f,+1.70392558e-01f,+1.60123818e-02f,+3.79509717e-01f,-3.34865414e-02f,
    +2.43005276e-01f,+2.56045699e-01f,-1.57283852e-03f,-3.22546363e-01f,+5.50866202e-02f,
    -9.48387980e-02f,+2.23446786e-01f,-6.70653582e-02f,-6.25395298e-01f,+3.97725292e-02f,
    +4.48353142e-01f,-6.82601482e-02f,-6.86100870e-03f,-7.35517666e-02f,-3.80077399e-02f,
    +1.90730855e-01f,-1.43030077e-01f,+2.34987855e-01f,-3.10818791e-01f,-1.37388453e-01f,
    -9.29604750e-03f,+2.73618966e-01f,-3.67171288e-01f,+4.18670714e-01f,+3.64482611e-01f,
    -5.37968397e-01f,+2.34173000e-01f,-4.07302529e-01f,+8.63878205e-02f,+3.53371024e-01f,
    -1.82169631e-01f,+2.67276615e-01f,-3.49975944e-01f,-2.76881337e-01f,+2.86910087e-01f,
    -1.42027006e-01f,+3.57540518e-01f,+2.30405644e-01f,+3.33029538e-01f,-2.24151626e-01f,
    -1.89548537e-01f,+5.21732867e-02f,+3.45981151e-01f,+3.33391130e-01f,+2.88416855e-02f,
    +3.82658452e-01f,-1.37617454e-01f,-3.83623749e-01f,+4.13497686e-01f,-3.05573702e-01f,
    +2.31155515e-01f,+1.73498854e-01f,+2.37709627e-01f,-1.77354962e-01f,+5.03662586e-01f,
    +4.17905897e-02f,-2.19874009e-01f,+1.53201535e-01f,-2.32411459e-01f,+2.93610334e-01f,
    +2.95318991e-01f,-1.79083213e-01f,+6.90053880e-01f,-3.02778184e-01f,+3.99313480e-01f,
    +5.08601487e-01f,-2.69884050e-01f,+6.93086833e-02f,-2.71369845e-01f,-2.15463057e-01f,
    -5.31424731e-02f,+2.76533425e-01f,-4.87484112e-02f,+2.77570307e-01f,-1.63718268e-01f,
    -1.26468256e-01f,-4.56988215e-02f,-2.47023121e-01f,-7.94243999e-03f,+6.10457957e-01f,
    -2.20638797e-01f,+3.23462099e-01f,-1.43326640e-01f,-2.87660241e-01f,-1.61167100e-01f,
    -5.88197231e-01f,+6.65400505e-01f,+1.14583515e-01f,-1.33031800e-01f,+4.30950940e-01f,
    -2.26316094e-01f,+3.26842040e-01f,+1.76790625e-01f,-2.01664910e-01f,+7.76833832e-01f,
    -8.01947489e-02f,+6.31385028e-01f,+7.31997132e-01f,-1.54520974e-01f,+1.53030246e-01f,
    -7.72931054e-02f,-1.64526135e-01f,-7.45533034e-02f,-2.50992421e-02f,+3.30614507e-01f,
    +4.33739364e-01f,-5.68369985e-01f,-1.87013581e-01f,+8.49970579e-02f,-1.27528116e-01f,
    -8.85243416e-02f,+7.41905332e-01f,-2.04360574e-01f,+4.26319569e-01f,-2.39266247e-01f,
    -1.00995399e-01f,-2.30587795e-01f,+4.48136955e-01f,-6.43360138e-01f,+1.40722811e-01f,
    +6.10622466e-02f,-5.52852638e-02f,-2.52146393e-01f,+1.82658002e-01f,-7.66807318e-01f,
    +2.15312093e-01f,-4.10423964e-01f,-1.50752544e-01f,-4.85085905e-01f,-4.67842110e-02f,
    +2.27430835e-01f,-2.46976644e-01f,+1.73540816e-01f,+1.69593215e-01f,-2.90865898e-01f,
    -1.42912591e+00f,-1.13964893e-01f,-1.64341474e+00f,-2.30346471e-01f,+1.81555688e-01f,
    +7.52086714e-02f,+3.53966773e-01f,-2.61858720e-02f,-1.01710975e+00f,+2.72323549e-01f,
    -5.88180721e-01f,+1.41704261e-01f,+1.00961529e-01f,+9.74846184e-02f,-2.28459522e-01f,
    -8.45497072e-01f,+7.48893619e-01f,+1.08908343e+00f,-7.12704122e-01f,+1.03951037e+00f,
    -5.24905086e-01f,-1.32212222e+00f,+9.95155573e-01f,-6.59291625e-01f,+9.73312557e-01f,
    -5.97145319e-01f,-2.30563238e-01f,+9.68281865e-01f,-1.10624135e+00f,+1.08235002e+00f,
    +9.53911006e-01f,+9.92485225e-01f,-1.02617919e+00f,-7.53103375e-01f,-1.27073038e+00f,
    +8.92113686e-01f,+8.55100095e-01f,-1.30540475e-01f,+9.16956782e-01f,-1.13712236e-01f,
    -7.81655669e-01f,+8.70487273e-01f,-1.25753272e+00f,+9.66967821e-01f,+9.80603576e-01f,
    +9.84607637e-01f,+2.74065197e-01f,+2.13009953e-01f,-5.33425771e-02f,-2.42836893e-01f,
    +3.67329001e-01f,-7.89405033e-02f,+4.25023466e-01f,+1.34809881e-01f,+1.72610775e-01f,
    +2.84962714e-01f,+2.83227470e-02f,+3.11270952e-01f,+3.10994118e-01f,+1.97993107e-02f,
    +3.56773078e-01f,+7.10534211e-03f,+1.31648615e-01f,+1.52028939e-02f,+3.02286208e-01f,
    +3.25940281e-01f,+2.31964499e-01f,-3.20407748e-02f,+9.75499153e-02f,+6.18287772e-02f,
    +9.02952999e-02f,-2.02720221e-02f,+2.30404168e-01f,+1.81753859e-01f,-6.32432243e-03f,
    -2.12729812e-01f,+5.04697673e-02f,+3.91101539e-02f,+1.66900352e-01f,+2.63831586e-01f,
    +1.92681730e-01f,-2.51940280e-01f,+9.38101858e-02f,+7.47464001e-02f,+4.43628848e-01f,
    +3.64403278e-01f,-3.52368802e-02f,+4.95671391e-01f,-5.85327968e-02f,+2.72673815e-01f,
    +5.61823189e-01f,+1.65610299e-01f,+1.30644128e-01f,+3.84404287e-02f,-3.96870933e-02f,
    +1.05035722e-01f,+1.46604478e-01f,+2.72286981e-01f,+1.08359888e-01f,-1.74963027e-02f,
    -3.33138332e-02f,-7.06895739e-02f,-7.47298002e-02f,-1.92813039e-01f,+3.37934256e-01f,
    -1.18483424e-01f,+2.60108113e-01f,-1.19162180e-01f,+2.87528485e-02f,-1.81707833e-02f,
    +9.70314518e-02f,+6.00043178e-01f,-5.20079494e-01f,-2.63019472e-01f,+1.90188095e-01f,
    -1.69194087e-01f,+5.26924074e-01f,+2.01028630e-01f,-8.40496272e-03f,+5.93207896e-01f,
    +2.55780816e-02f,+2.02905208e-01f,+3.63709152e-01f,-7.21102506e-02f,+6.10675029e-02f,
    -1.41703546e-01f,-1.18383743e-01f,-3.59356403e-01f,+2.57458657e-01f,+2.29342327e-01f,
    +2.64644146e-01f,+2.50309825e-01f,-1.12335324e-01f,+1.37559563e-01f,-3.16380672e-02f,
    +5.86457551e-02f,+4.27542508e-01f,-1.31025597e-01f,+7.62213990e-02f,-1.23073854e-01f,
    +3.20259156e-03f,-1.81056127e-01f,+1.60116032e-01f,-2.80664802e-01f,+3.55999410e-01f,
    +4.32538360e-01f,-6.47774875e-01f,+4.21926290e-01f,-4.67840582e-01f,-3.46052557e-01f,
    +4.55794901e-01f,-4.02696162e-01f,+4.92344975e-01f,-2.60721475e-01f,-4.60203975e-01f,
    +4.54262853e-01f,-4.18251663e-01f,+4.82135862e-01f,+4.96548831e-01f,+6.35545790e-01f,
    -2.97733039e-01f,-5.80214858e-01f,-2.64608651e-01f,+2.97629833e-01f,+3.35066617e-01f,
    -1.73309490e-01f,+3.91081423e-01f,-4.81570363e-02f,-4.91086930e-01f,+4.21655327e-01f,
    -3.93823922e-01f,+2.40494296e-01f,+3.90962899e-01f,+3.02449673e-01f,+4.58308786e-01f,
    +3.35652858e-01f,-2.96636224e-01f,+1.99728668e-01f,-4.70027238e-01f,-2.41926163e-01f,
    +4.58787620e-01f,+5.21322526e-02f,+2.58237362e-01f,+4.28640962e-01f,-2.11031452e-01f,
    -4.33212966e-02f,+2.55878896e-01f,+9.18261930e-02f,-1.53269991e-01f,-7.15527758e-02f,
    +1.13225393e-01f,-2.31231362e-01f,-4.86082844e-02f,-1.56471968e-01f,+1.98757946e-01f,
    +2.10080147e-02f,+3.00416112e-01f,-6.77890144e-03f,+3.50862026e-01f,-1.24487951e-01f,
    +3.61875772e-01f,+4.41637844e-01f,+1.65990233e-01f,+2.44903296e-01f,+1.30652227e-02f,
    +4.03002948e-01f,+6.13904178e-01f,-6.58395886e-01f,-7.02393055e-02f,-4.20132875e-02f,
    -2.03454010e-02f,-6.26553178e-01f,+2.73301035e-01f,-3.42357904e-02f,-3.08435827e-01f,
    +2.95251936e-01f,-4.59722102e-01f,+4.63867843e-01f,+4.65893090e-01f,-4.54388410e-01f,
    +1.79609790e-01f,-5.52065611e-01f,-3.13848436e-01f,-3.41431379e-01f,+9.37771723e-02f,
    +2.46035248e-01f,-1.78385317e-01f,-3.36437196e-01f,-4.22213614e-01f,+5.76952696e-02f,
    -2.65557289e-01f,+2.49483604e-02f,-4.75368738e-01f,-3.09195310e-01f,+1.82157993e-01f,
    -3.22185606e-01f,-4.51539129e-01f,-2.34216601e-01f,-4.16213036e-01f,+5.39099395e-01f,
    -1.36967734e-01f,-1.26848936e-01f,+1.51914373e-01f,-2.38107994e-01f,+6.40658677e-01f,
    +3.63232970e-01f,-2.19061106e-01f,+5.31646848e-01f,-2.63756335e-01f,+7.92828128e-02f,
    +4.63749915e-01f,-1.31453320e-01f,+4.72149312e-01f,-2.53468215e-01f,-1.74882591e-01f,
    -2.38463938e-01f,+2.02335596e-01f,+6.42460525e-01f,+3.51121962e-01f,-1.80792257e-01f,
    -2.36944959e-01f,-3.80590418e-03f,-3.04294705e-01f,-3.87512408e-02f,+7.03961790e-01f,
    -1.32482484e-01f,-5.20516336e-02f,-1.25720099e-01f,-1.33265659e-01f,-1.97426215e-01f,
    -8.10450852e-01f,-1.88778624e-01f,+1.71138734e-01f,-7.15811774e-02f,-2.78314829e-01f,
    +9.11867917e-02f,-4.37148720e-01f,-8.24064240e-02f,+7.03098252e-02f,-2.18121588e-01f,
    +1.14220180e-01f,+1.52484357e-01f,-6.94726527e-01f,+1.03629567e-01f,+2.77528614e-02f,
    +1.48318887e-01f,+8.87295306e-02f,+2.26933688e-01f,+1.94165111e-01f,-3.77242208e-01f,
    +5.16493432e-02f,+2.19975471e-01f,+9.07961279e-02f,+1.94468368e-02f,-1.14846222e-01f,
    -3.09066437e-02f,-6.28524780e-01f,-6.02424331e-02f,+5.41908368e-02f,+1.84524775e-01f,
    +1.05973534e-01f,-3.86023223e-02f,-2.68216014e-01f,-2.79339813e-02f,+5.48044920e-01f,
    +3.41906577e-01f,-8.21638405e-02f,+5.48611403e-01f,-3.10017973e-01f,-2.23367631e-01f,
    +4.65136170e-01f,-4.02498871e-01f,+5.85120261e-01f,-4.59251970e-01f,-1.99718341e-01f,
    +4.06848311e-01f,-3.27518612e-01f,+5.85031092e-01f,+4.65075940e-01f,+4.42741871e-01f,
    -3.90865892e-01f,+3.33875194e-02f,-3.68114769e-01f,+6.90664709e-01f,+4.33997303e-01f,
    -6.40533343e-02f,+4.15100515e-01f,+1.86438765e-02f,-1.85326532e-01f,+6.09688401e-01f,
    -3.47682983e-01f,+5.56240559e-01f,+5.16063452e-01f,+5.35428822e-01f,-2.41745159e-01f,
    -6.12329423e-01f,+7.39909291e-01f,+3.71530354e-01f,-4.08735991e-01f,+1.16936028e-01f,
    -1.79602653e-01f,-4.28505123e-01f,+1.11891299e-01f,-3.33245881e-02f,-4.59464490e-02f,
    -1.43631876e-01f,+1.50991961e-01f,+2.38741562e-01f,-4.18928146e-01f,-1.03725288e-02f,
    -3.20002362e-02f,+1.78879261e-01f,-4.55795258e-01f,-5.90045333e-01f,-7.92460501e-01f,
    -3.65722507e-01f,-5.16766198e-02f,-6.76577464e-02f,+2.86845088e-01f,-6.87889680e-02f,
    -4.44580801e-02f,+2.67675340e-01f,-4.41831529e-01f,+7.85111189e-02f,+1.66333660e-01f,
    +1.58891305e-01f,-3.91728133e-01f,-2.36679688e-01f,-1.19496115e-01f,+3.62103254e-01f,
    -1.18889880e+00f,-1.28208593e-01f,-3.66209507e-01f,-1.92793056e-01f,+2.35820666e-01f,
    +5.88062033e-02f,+2.78520603e-02f,-3.27869326e-01f,-2.13716969e-01f,+1.22652553e-01f,
    -5.39423108e-01f,+7.01227933e-02f,+1.19079076e-01f,+2.25588694e-01f,-2.77835466e-02f,
    -4.76451725e-01f,-5.42532444e-01f,-1.33161485e-01f,+3.75044078e-01f,+1.12041727e-01f,
    +5.42285562e-01f,+5.81539348e-02f,-1.34293929e-01f,+5.48801243e-01f,-5.33782542e-01f,
    +2.12602347e-01f,+1.84711024e-01f,+4.36441213e-01f,+3.36148590e-01f,-8.33724678e-01f,
    -1.24455914e-02f,+5.39446920e-02f,-2.06488863e-01f,+4.05697078e-02f,-2.25018993e-01f,
    -6.20039403e-01f,+2.61088997e-01f,-3.14668387e-01f,+1.53342277e-01f,-4.98443723e-01f,
    +3.60689834e-02f,+2.23065302e-01f,-6.56508386e-01f,+2.34814197e-01f,+2.32885048e-01f,
    +3.27562153e-01f,-6.78653061e-01f,-5.14299929e-01f,-7.32645392e-01f,+3.20434332e-01f,
    +2.60953873e-01f,-1.58693805e-01f,+1.45504981e-01f,+1.32223824e-02f,-6.24316275e-01f,
    +9.90912393e-02f,-6.80597663e-01f,+3.91600937e-01f,+2.91165084e-01f,+2.86357760e-01f,
    -2.12681085e-01f,+2.43750319e-01f,-8.46407413e-02f,+2.16169134e-01f,-5.11054695e-03f,
    +1.10671572e-01f,+1.99937716e-01f,+9.85083655e-02f,-3.88756092e-03f,+3.85794282e-01f,
    +1.45816728e-02f,+2.86098212e-01f,+5.03973484e-01f,+1.04909623e-02f,-8.03639144e-02f,
    +1.74961716e-01f,+2.51614619e-02f,+5.11592403e-02f,+1.04003303e-01f,+4.31018732e-02f,
    +1.43541485e-01f,+3.11644435e-01f,+7.97697157e-02f,-1.04079358e-01f,+1.91598624e-01f,
    -1.45572767e-01f,+4.20077413e-01f,+2.32887730e-01f,+1.49048362e-02f,+1.55832916e-01f,
    +2.34941710e-02f,+7.16728494e-02f,-2.75989890e-01f,+1.20450847e-01f,+8.01268816e-01f,
    +3.49408947e-02f,+9.34499875e-02f,+2.36697733e-01f,+7.90629014e-02f,+1.49633899e-01f,
    +1.15284152e-01f,+1.82789534e-01f,+2.16155186e-01f,+1.49130955e-01f,+1.28512770e-01f,
    +2.40089983e-01f,+2.51350731e-01f,+1.43700495e-01f,+1.52827084e-01f,+1.68292999e-01f,
    +1.61866575e-01f,+3.45843673e-01f,+2.09164824e-02f,+2.75362849e-01f,+1.13179132e-01f,
    -3.09831817e-02f,+7.59406388e-02f,+4.42871638e-02f,+2.15284407e-01f,+2.10812658e-01f,
    -1.36448815e-01f,+2.33955443e-01f,+2.28972301e-01f,+1.58180952e-01f,-7.02813208e-01f,
    -9.35056686e-01f,-5.68534732e-01f,+7.82524124e-02f,-8.73979151e-01f,+1.76561281e-01f,
    -1.78017139e+00f,-1.14317143e+00f,+8.00118595e-02f,-1.45115840e+00f,+7.77447149e-02f,
    -1.21836722e+00f,-1.29013681e+00f,+2.51372337e-01f,-7.60521173e-01f,+5.33547625e-02f,
    +1.64063364e-01f,+3.32138568e-01f,-1.28949678e+00f,-1.03100491e+00f,-9.85745132e-01f,
    +1.75467819e-01f,+1.73784923e-02f,-7.44454116e-02f,+7.34243393e-02f,-9.80450287e-02f,
    -1.93408096e+00f,+6.25080243e-02f,-8.05298448e-01f,-4.89949211e-02f,+1.04757681e-01f,
    +1.49913460e-01f,-5.43941319e-01f,-1.28631008e+00f,-7.58612394e-01f,+5.48875451e-01f,
    -8.77657533e-01f,+3.91599655e-01f,-1.14954901e+00f,-1.02816594e+00f,+3.07753354e-01f,
    -1.32688689e+00f,+3.51340592e-01f,-9.36428189e-01f,-1.23436308e+00f,+3.39189738e-01f,
    -1.43821347e+00f,+2.25522354e-01f,+3.87214839e-01f,+1.93589658e-01f,-9.53668237e-01f,
    -1.60197091e+00f,-7.89074600e-01f,+4.21369672e-01f,+3.88065517e-01f,-2.58311145e-02f,
    +3.10000718e-01f,+4.83543947e-02f,-1.32441032e+00f,+2.23388970e-01f,-1.29388845e+00f,
    +4.72861648e-01f,+2.16790274e-01f,+2.26089716e-01f,+4.74774800e-02f,-8.47283751e-02f,
    +8.55329856e-02f,+1.97284758e-01f,-3.28728958e-04f,+4.14400399e-01f,-1.84033856e-01f,
    -2.54354298e-01f,+3.40042144e-01f,-3.81644189e-01f,+2.34385416e-01f,-5.67366123e-01f,
    -4.99988168e-01f,+3.02867085e-01f,-1.16743140e-01f,+3.36588830e-01f,+4.22204167e-01f,
    +3.16278547e-01f,-2.72809833e-01f,+8.39874148e-02f,-1.18154816e-01f,+2.23468482e-01f,
    +2.06657007e-01f,-7.48799816e-02f,+2.39326492e-01f,+2.45529599e-02f,-4.09843117e-01f,
    +2.93803602e-01f,-7.04741180e-02f,+2.12708846e-01f,+4.12158102e-01f,+4.25215453e-01f,
    +1.71911195e-01f,+2.03529641e-01f,+1.34237543e-01f,-6.71502650e-02f,+3.33900243e-01f,
    -7.91021585e-02f,+3.57399374e-01f,+2.54842073e-01f,-3.25705297e-02f,+3.53510469e-01f,
    -5.47014438e-02f,+5.08612432e-02f,+3.38537604e-01f,-2.66509261e-02f,+2.20182821e-01f,
    -1.39247701e-02f,-5.35732768e-02f,-9.43108872e-02f,+1.19275995e-01f,+3.70067626e-01f,
    +1.69839282e-02f,-4.37708408e-01f,-5.99308684e-02f,-5.61958132e-03f,-2.35323142e-02f,
    -3.24927270e-02f,+2.92072028e-01f,-1.46181565e-02f,+1.31239370e-01f,+9.60301906e-02f,
    -2.68300734e-02f,+1.91776976e-02f,+3.11445981e-01f,+1.09776713e-01f,-9.70308959e-01f,
    -2.10882217e-01f,+3.84123802e-01f,-2.99174160e-01f,+4.15151864e-01f,+3.87773812e-01f,
    -2.53756166e-01f,+1.15967274e-01f,-3.01284969e-01f,+4.29004371e-01f,+3.73950839e-01f,
    -2.33224511e-01f,+4.39497441e-01f,-1.50709420e-01f,-2.96455145e-01f,-5.66126823e-01f,
    +4.20266688e-01f,+4.84205157e-01f,+3.90532404e-01f,+3.27807143e-02f,-2.97408581e-01f,
    +1.48676606e-02f,-2.68797666e-01f,-3.29549909e-02f,+2.33295545e-01f,-2.10419774e-01f,
    +4.32246953e-01f,-1.58872455e-01f,-2.65225172e-01f,-1.87184215e-01f,-1.67588979e-01f,
    -3.27285171e-01f,-5.01949131e-01f,+1.25734031e-01f,+1.01072453e-01f,+2.12075673e-02f,
    -2.90622771e-01f,-2.31684707e-02f,-5.42928018e-02f,-5.11342406e-01f,+3.10378242e-02f,
    +1.00894660e-01f,-5.04471540e-01f,-1.56684350e-02f,+1.91579789e-01f,+1.42774461e-02f,
    +1.23574212e-01f,+1.03582390e-01f,+1.43913597e-01f,+6.92714471e-03f,+1.69361725e-01f,
    +2.17785388e-01f,-4.30558296e-03f,-7.05956221e-02f,+7.39485845e-02f,-7.81869963e-02f,
    -4.28802997e-01f,+3.40480432e-02f,+1.76449239e-01f,+9.53352377e-02f,+3.62947397e-02f,
    +5.05363345e-02f,+6.53911889e-01f,+1.52177781e-01f,+2.53641903e-02f,+8.19793195e-02f,
    +2.80262351e-01f,+5.53213358e-02f,+3.60264480e-01f,+6.51865900e-02f,+5.82355000e-02f,
    +1.83755964e-01f,+2.50821501e-01f,+1.53016016e-01f,+2.42447093e-01f,-4.13192809e-03f,
    +3.55155945e-01f,-4.06291895e-02f,+1.03662975e-01f,+1.88415661e-01f,-9.45045054e-02f,
    +1.14696912e-01f,+8.06206092e-02f,-6.49917126e-02f,+1.38548672e-01f,-1.18141726e-01f,
    -1.21453710e-01f,-1.47733614e-01f,+1.05674364e-01f,-6.01385459e-02f,+2.15295941e-01f,
    +2.25975960e-01f,+1.08115658e-01f,+4.45927493e-02f,-2.55405486e-01f,-5.93322635e-01f,
    -1.49529243e+00f,+4.28373814e-02f,-1.00082405e-01f,-8.33371505e-02f,-6.85092092e-01f,
    +7.50075206e-02f,-5.65394312e-02f,-4.27691936e-01f,-1.34723680e-03f,-9.04988647e-02f,
    -4.80005682e-01f,-7.75319859e-02f,+2.86700398e-01f,-1.02793574e-01f,+1.35147115e-02f,
    +3.00906505e-02f,+5.01049608e-02f,-1.43498495e-01f,+1.33385897e-01f,-6.14674799e-02f,
    +3.29044499e-02f,+1.45678625e-01f,-2.58538537e-02f,+1.59872640e-02f,-6.45315051e-01f,
    -6.06839508e-02f,+1.44674584e-01f,-7.60076120e-02f,-1.04577512e-01f,-8.79762173e-02f,
    -6.36756778e-01f,-3.49005431e-01f,+7.40285516e-02f,+6.08063579e-01f,+2.13050365e-01f,
    +5.12344241e-01f,-4.64897037e-01f,+1.54551063e-02f,+4.86167282e-01f,-4.14311290e-01f,
    +5.13026297e-01f,-5.45274913e-01f,-3.43520552e-01f,+5.54149568e-01f,-3.81972678e-02f,
    +4.86810207e-01f,+4.81636792e-01f,+4.86751825e-01f,-1.39074609e-01f,-1.68176457e-01f,
    +5.60681522e-02f,+5.60337305e-01f,+5.57559073e-01f,+5.78130549e-03f,+5.08335114e-01f,
    +4.04460318e-02f,-2.12391257e-01f,+4.07373488e-01f,-2.82931849e-02f,+4.98418063e-01f,
    +6.24065399e-01f,+4.84413594e-01f,-4.72027332e-01f,-4.40265745e-01f,-3.52155566e-01f,
    -1.36949763e-01f,-3.78379345e-01f,-1.61659598e-01f,-4.33763027e-01f,+1.18529797e-01f,
    -1.11874603e-01f,-5.40959895e-01f,-1.58080116e-01f,+2.12629572e-01f,-9.04951692e-01f,
    +4.54935096e-02f,-5.53681441e-02f,-6.09569699e-02f,-1.53087065e-01f,+1.01089813e-01f,
    +3.53059709e-01f,-3.02161008e-01f,+2.76500285e-01f,+3.46285135e-01f,-1.49322804e-02f,
    +1.22692948e-02f,+4.28420492e-02f,+6.62601367e-02f,-9.55518901e-01f,-6.61728159e-02f,
    +1.67012289e-01f,-5.14198877e-02f,-1.72999203e-01f,-3.51487473e-02f,+2.41087124e-01f,
    +1.41349718e-01f,+3.79310459e-01f,+7.96246111e-01f,-1.45776421e-01f,+7.78880000e-01f,
    -8.41334239e-02f,-2.31535897e-01f,+7.89336264e-01f,-3.68311346e-01f,+8.42877388e-01f,
    -3.25124711e-01f,-6.77828118e-02f,+7.48436630e-01f,-2.58928984e-01f,+7.62499213e-01f,
    +8.32622647e-01f,+6.32248223e-01f,-2.40843207e-01f,+2.84728408e-02f,-1.31943345e-01f,
    +5.91907859e-01f,+7.39044309e-01f,-1.13648437e-01f,+7.34147489e-01f,-1.08846754e-01f,
    +1.29764959e-01f,+8.56846809e-01f,-3.48941803e-01f,+8.00890267e-01f,+8.02502155e-01f,
    +8.03662598e-01f,+1.90708801e-01f,-1.05552316e+00f,+4.59612533e-02f,+1.15538031e-01f,
    -4.04369980e-01f,+9.37883854e-02f,-8.00899148e-01f,-5.29874682e-01f,-4.83689345e-02f,
    -5.59231937e-01f,-1.16261333e-01f,-4.23713118e-01f,-4.31002349e-01f,-2.72620380e-01f,
    -2.98942894e-01f,-2.37383589e-01f,-2.51873136e-01f,-3.42937075e-02f,-3.45629096e-01f,
    -6.10657334e-01f,-3.63072515e-01f,-1.64115056e-01f,-1.71658490e-02f,-2.00154468e-01f,
    +1.10509753e-01f,-1.10457867e-01f,-7.87213326e-01f,+3.59298140e-02f,-2.11750284e-01f,
    +1.20354272e-01f,-2.39586845e-01f,+2.29033902e-01f,+5.26970208e-01f,-6.55516803e-01f,
    -8.68213594e-01f,-1.36383086e-01f,+1.23457782e-01f,-2.12263271e-01f,+4.37242359e-01f,
    -3.74890901e-02f,-2.66369373e-01f,+6.13131113e-02f,-4.66135114e-01f,+3.94817591e-01f,
    +3.46219867e-01f,-5.55384278e-01f,+3.37150037e-01f,-4.89820451e-01f,-4.39821452e-01f,
    -2.40481451e-01f,-9.31614786e-02f,+3.58189762e-01f,+3.00033271e-01f,-2.83606142e-01f,
    -3.21356952e-01f,+1.71827581e-02f,-5.06122708e-01f,-8.72009173e-02f,-2.27754459e-01f,
    -3.41453761e-01f,+2.71410257e-01f,-2.44579539e-01f,-5.98676383e-01f,-3.33979726e-01f,
    -2.46601045e-01f,-4.64790821e-01f,+1.04288869e-01f,-1.86858565e-01f,-5.83886430e-02f,
    -1.43452659e-01f,+1.78942993e-01f,-1.23797044e-01f,-9.56372246e-02f,-2.30516300e-01f,
    -3.33237439e-01f,-1.94265410e-01f,-1.28368855e-01f,-6.01589633e-03f,-1.15506612e-01f,
    +4.18639444e-02f,-2.05737669e-02f,-1.56113897e-02f,-9.26426351e-02f,-2.21721843e-01f,
    -2.60139257e-01f,-3.12650889e-01f,-2.15244249e-01f,-1.26874298e-01f,+1.88979767e-02f,
    +4.29467335e-02f,+5.54566942e-02f,-5.11661209e-02f,+9.29847658e-02f,-1.05177313e-01f,
    -2.72313833e-01f,-1.37577742e-01f,-3.66905659e-01f,-6.81526810e-02f,+2.67221685e-02f,
    -7.37015903e-02f,-1.18308989e-02f,-1.83361486e-01f,+4.04315442e-03f,+2.42134079e-01f,
    -1.66882664e-01f,+2.47901352e-03f,-1.83377072e-01f,+2.75967121e-01f,+6.83652684e-02f,
    -2.52122581e-01f,+1.73698127e-01f,-1.61181793e-01f,-1.69853434e-01f,+2.18019336e-02f,
    +3.46827477e-01f,-5.59164993e-02f,+4.68307525e-01f,-1.73855275e-01f,-8.18767175e-02f,
    -9.46667120e-02f,-1.42579794e-01f,+2.64199395e-02f,+1.92687258e-01f,-6.16330802e-02f,
    +3.88165087e-01f,-1.02320708e-01f,-2.30192825e-01f,-1.94142863e-01f,-2.04666719e-01f,
    +6.05008425e-03f,+4.56520945e-01f,+2.73797154e-01f,-1.18233643e-01f,+1.98012277e-01f,
    +2.08176702e-01f,+2.21775129e-01f,+2.05378026e-01f,+9.24813896e-02f,+2.47325987e-01f,
    -2.79129803e-01f,-2.21053869e-01f,+9.34797376e-02f,+3.50145847e-01f,+1.92737922e-01f,
    +1.05295524e-01f,+1.97342947e-01f,+5.14485836e-02f,+3.51659656e-01f,+1.35286599e-01f,
    +9.45040509e-02f,+1.75481632e-01f,-1.60497602e-03f,+1.29821941e-01f,+4.70899940e-02f,
    +2.47787103e-01f,+1.26097826e-02f,+2.23750919e-01f,+1.81097463e-01f,+2.50043809e-01f,
    +2.24999130e-01f,+4.26594615e-01f,+5.72437704e-01f,-8.65760326e-01f,-2.44309947e-01f,
    +1.86251029e-01f,-8.85772184e-02f,+6.18716478e-01f,+4.16973140e-03f,-9.18938890e-02f,
    +3.36826235e-01f,-1.15658015e-01f,+2.62910992e-01f,+6.68549240e-01f,-2.63540298e-01f,
    -8.41061249e-02f,-2.60262042e-01f,-1.73934743e-01f,-1.20940208e-02f,-1.80211961e-01f,
    +4.76314098e-01f,-7.28732109e-01f,+6.37069298e-03f,-2.36155301e-01f,-8.66870657e-02f,
    -2.76784390e-01f,-7.66702518e-02f,+4.75421190e-01f,-1.62651449e-01f,-8.55199873e-01f,
    -5.83298683e-01f,-2.96581954e-01f,-2.48353571e-01f,-1.07757762e-01f,+5.93584895e-01f,
    -6.16454482e-01f,-7.92562842e-01f,+6.62806690e-01f,-5.35077393e-01f,+1.74923971e-01f,
    -7.18666539e-02f,-4.50876474e-01f,+8.19312096e-01f,-5.22459447e-01f,+6.91140413e-01f,
    +6.18913710e-01f,-5.21399021e-01f,+2.31737182e-01f,-4.60619569e-01f,-6.68663621e-01f,
    -4.26750541e-01f,+2.69277811e-01f,+1.12866141e-01f,+3.83592397e-02f,+2.42101669e-01f,
    -7.80439496e-01f,-6.79065138e-02f,-6.20769680e-01f,+9.20951217e-02f,+6.00941896e-01f,
    -4.72011447e-01f,+5.94015539e-01f,-7.43044198e-01f,-7.06207454e-01f,-5.01573026e-01f,
    -3.74368429e-01f,+4.83996868e-01f,-2.27122270e-02f,+4.70675416e-02f,+4.66522664e-01f,
    +1.44420117e-01f,+6.08791523e-02f,-6.02328740e-02f,+6.51610568e-02f,+2.86789715e-01f,
    +4.20348719e-02f,+1.06427558e-01f,+8.95213932e-02f,+4.91570048e-02f,-4.40881178e-02f,
    -3.72424647e-02f,+4.92404215e-02f,+9.52809528e-02f,-3.00905332e-02f,+2.70728201e-01f,
    -1.68134850e-02f,-1.37807503e-01f,+1.47649609e-02f,+8.28890037e-03f,+6.03191145e-02f,
    -1.51494011e-01f,+3.69293511e-01f,+8.45039487e-02f,+2.42103815e-01f,+1.43311232e-01f,
    +1.47039354e-01f,+7.01056272e-02f,+3.46399806e-02f,-4.02455293e-02f,+3.28140914e-01f,
    +3.16360354e-01f,-1.91919118e-01f,+3.64412546e-01f,-7.08243102e-02f,-2.52338618e-01f,
    +3.37317795e-01f,+9.67624113e-02f,+2.03949988e-01f,-3.03883501e-03f,+7.25873485e-02f,
    +4.14960742e-01f,-2.37262547e-01f,+3.06426764e-01f,+1.92773610e-01f,+1.52414069e-01f,
    -9.21458676e-02f,-4.06949334e-02f,-5.92665859e-02f,-7.88247064e-02f,+2.21347556e-01f,
    +7.98482820e-02f,+2.68433422e-01f,+2.80152559e-02f,+1.00120097e-01f,+3.00891906e-01f,
    -2.98667490e-03f,+3.28733891e-01f,+3.66750449e-01f,+2.93959856e-01f,-2.30857491e-01f,
    -2.06878185e-01f,+3.66850883e-01f,-3.10588598e-01f,-1.24899045e-01f,+9.65818614e-02f,
    -4.40258652e-01f,-1.27050862e-01f,+1.15963727e-01f,-1.40829785e-02f,+1.26429066e-01f,
    +1.75698832e-01f,-1.07040368e-01f,-1.62103754e-02f,-8.07686299e-02f,+9.39228013e-02f,
    +7.78278187e-02f,+3.80488373e-02f,+2.90917661e-02f,-5.92401683e-01f,-4.52723652e-02f,
    -1.08597517e-01f,-4.38601635e-02f,-6.23197071e-02f,-6.03887513e-02f,-7.19900578e-02f,
    -8.30300674e-02f,-2.21616048e-02f,+9.59080830e-02f,-7.00448304e-02f,+4.42994721e-02f,
    +1.30073771e-01f,+2.19470948e-01f,+1.12679996e-01f,+7.01653063e-02f,-2.59122044e-01f,
    -1.22457564e-01f,-1.71542622e-03f,+2.05773339e-01f,-3.65032181e-02f,+6.45535141e-02f,
    +1.27617538e-01f,-4.20600250e-02f,+1.19906388e-01f,+7.02654496e-02f,+2.84576770e-02f,
    -3.30606163e-01f,+1.05142556e-01f,+1.02323569e-01f,-1.15746027e-02f,-9.16442722e-02f,
    -3.29445332e-01f,+1.91668253e-02f,-7.45325387e-02f,-7.21621439e-02f,-4.62108180e-02f,
    -3.40431258e-02f,-5.05363271e-02f,+2.73833513e-01f,+9.01702195e-02f,+3.67008522e-02f,
    -4.38901111e-02f,-6.01241887e-02f,+9.90371332e-02f,+1.53531343e-01f,+1.78735927e-01f,
    -8.90957117e-01f,+2.23145373e-02f,+1.86685026e-01f,+5.34514338e-02f,+1.89524978e-01f,
    +5.31171024e-01f,+1.13332309e-02f,+3.97014737e-01f,+7.87732005e-02f,+3.71663123e-01f,
    +1.94352850e-01f,-1.34102598e-01f,+4.12666827e-01f,-7.10841194e-02f,+9.39553827e-02f,
    +1.19885392e-01f,+4.25567806e-01f,+7.34910145e-02f,+2.98913926e-01f,+2.13761523e-01f,
    -6.60278723e-02f,+6.52799383e-02f,+6.91362917e-02f,+2.98473500e-02f,+2.53171295e-01f,
    +2.62816399e-02f,+5.92093885e-01f,-1.31369263e-01f,+2.96419747e-02f,-2.37191822e-02f,
    +2.64841318e-01f,-1.97633430e-01f,+3.12371075e-01f,+2.97199730e-02f,-9.03920680e-02f,
    +9.14941505e-02f,+8.94807652e-02f,+1.54976606e-01f,+1.87412694e-01f,+1.61743388e-01f,
    +2.18306959e-01f,-7.18344972e-02f,+8.90710056e-02f,+1.38196155e-01f,-7.00485855e-02f,
    +2.79192775e-02f,+2.50572979e-01f,+3.56340587e-01f,+4.70865518e-02f,+1.52540460e-01f,
    -4.74589542e-02f,+1.84624836e-01f,+9.22621191e-02f,+9.26094875e-02f,+1.94665954e-01f,
    +8.84349197e-02f,-7.60271400e-02f,+5.51731326e-02f,+1.08636931e-01f,-4.49902974e-02f,
    +1.59245193e-01f,+1.87845323e-02f,-7.66512603e-02f,-1.55642321e-02f,+6.45675540e-01f,
    +3.47567469e-01f,-9.13730785e-02f,+1.89270824e-01f,-1.60646573e-01f,-3.90731961e-01f,
    +1.98478281e-01f,-1.06768340e-01f,+1.46338373e-01f,+2.27804422e-01f,-1.06831819e-01f,
    +2.05858409e-01f,-4.77494061e-01f,+8.99615958e-02f,+2.16146737e-01f,+2.37922654e-01f,
    -1.81358397e-01f,-6.27669394e-01f,-3.46743711e-03f,-1.38118947e+00f,+1.73794925e-01f,
    -9.26578566e-02f,+1.68500975e-01f,-5.24837226e-02f,-2.66686469e-01f,+1.34944320e-01f,
    -1.75039649e-01f,+1.89836808e-02f,+1.98417366e-01f,+1.59483939e-01f,-4.30157751e-01f,
    -4.82552201e-01f,+7.39308476e-01f,+2.52449751e-01f,-2.05277905e-01f,-3.55202854e-02f,
    -2.66858339e-01f,-5.55571076e-03f,-8.06477740e-02f,-4.07226443e-01f,-3.87948230e-02f,
    +1.16134822e-01f,-4.11912084e-01f,-1.21847846e-01f,+2.09812462e-01f,-6.26694560e-02f,
    -3.39435413e-02f,+1.05942711e-01f,+1.70543820e-01f,-2.11205825e-01f,+2.67315835e-01f,
    -2.84796774e-01f,-1.02993548e-01f,-3.93705070e-02f,-1.66078135e-01f,+6.67604282e-02f,
    -4.44161743e-01f,-2.24512555e-02f,+9.28267017e-02f,+7.67901167e-02f,-4.45589721e-02f,
    -2.70766504e-02f,-1.08633339e+00f,+1.88302249e-01f,+1.98272780e-01f,-2.21290275e-01f,
    +2.09928021e-01f,-2.47207090e-01f,-1.76354244e-01f,+1.80463150e-01f,-2.49848872e-01f,
    +1.79827828e-02f,-3.20119828e-01f,+4.65309441e-01f,-3.77635732e-02f,-1.63845211e-01f,
    +3.25316399e-01f,-1.97465405e-01f,-8.42648521e-02f,-2.08899915e-01f,+2.06548065e-01f,
    +3.16067666e-01f,+2.38070153e-02f,-6.17172182e-01f,-6.14011958e-02f,-1.32011682e-01f,
    -1.29210070e-01f,+9.66489594e-03f,-9.93366390e-02f,-1.28401443e-01f,+2.78779387e-01f,
    -3.35276395e-01f,-2.90230274e-01f,-1.89209327e-01f,+2.67680734e-02f,+1.64309800e-01f,
    +5.52917838e-01f,+2.32756957e-01f,+1.73109815e-01f,+4.58284080e-01f,+2.59969860e-01f,
    +3.71914923e-01f,+2.98345834e-01f,+3.11556868e-02f,+4.59429264e-01f,+9.51219797e-02f,
    +1.54262602e-01f,+3.00058007e-01f,-1.47100259e-02f,+2.72118390e-01f,+3.14495474e-01f,
    +2.60831952e-01f,+2.11499348e-01f,+1.05695575e-01f,+3.81041795e-01f,+4.86713260e-01f,
    +2.76236713e-01f,+3.24594118e-02f,+2.06767276e-01f,-1.27613738e-01f,+1.40059069e-01f,
    +3.42815816e-01f,+3.00510138e-01f,+3.93977344e-01f,+4.24857229e-01f,+3.86549264e-01f,
    -1.23013079e-01f,+2.48063356e-01f,+1.84227917e-02f,+6.82742178e-01f,+5.25266111e-01f,
    +3.95140976e-01f,-8.94236937e-03f,+3.81852657e-01f,+2.28818804e-01f,+2.78718740e-01f,
    +4.27564740e-01f,+1.51656404e-01f,+1.13686293e-01f,+4.24993783e-01f,-1.92628175e-01f,
    +2.47011960e-01f,+3.20892394e-01f,+4.88581866e-01f,+3.42214018e-01f,-1.65051758e-01f,
    -2.20012348e-02f,+1.03855753e+00f,+3.48395109e-01f,-6.72578961e-02f,+2.59616971e-01f,
    +9.95776337e-03f,+1.70194149e-01f,+4.29675668e-01f,+2.11172163e-01f,+3.53210807e-01f,
    +4.58964020e-01f,+3.43644410e-01f,+4.75733548e-01f,-1.58170804e-01f,+3.11387777e-01f,
    +5.16708553e-01f,-4.64196384e-01f,+3.73673916e-01f,-6.03064485e-02f,+1.85596235e-02f,
    +4.99980032e-01f,+3.98468003e-02f,+3.48115981e-01f,-2.20457315e-01f,-4.37587984e-02f,
    +4.11464542e-01f,+8.46847668e-02f,+4.26424444e-01f,+4.26860362e-01f,+2.12677762e-01f,
    -4.97475788e-02f,-3.50360349e-02f,+1.39156863e-01f,+3.14960390e-01f,+3.93206626e-01f,
    -5.44556007e-02f,+4.92470592e-01f,-1.22443452e-01f,-7.92277381e-02f,+4.12356079e-01f,
    -3.54724318e-01f,+3.10948610e-01f,+4.40891147e-01f,+3.61542165e-01f,+7.34640583e-02f,
    +5.76551080e-01f,-5.16927205e-02f,+6.32633269e-03f,+2.97253013e-01f,-9.13307294e-02f,
    +6.99508190e-01f,+3.15072924e-01f,-1.63820699e-01f,+7.03411460e-01f,-1.45040676e-01f,
    +4.97574449e-01f,+7.16686547e-01f,-1.42842144e-01f,+3.05265993e-01f,-1.06057070e-01f,
    -1.82204127e-01f,-8.49041715e-02f,+4.99535978e-01f,+1.92978770e-01f,+2.61999667e-01f,
    +2.73298309e-03f,-1.83631763e-01f,+2.26341058e-02f,-1.56227574e-01f,-1.64018452e-01f,
    +7.72396922e-01f,-1.71978712e-01f,+5.15595376e-01f,+3.47446389e-02f,-1.36313230e-01f,
    -2.00012088e-01f,-3.88750106e-01f,+7.51906812e-01f,-5.46879828e-01f,-3.39166522e-01f,
    +5.42944014e-01f,-2.63083607e-01f,+4.34035033e-01f,+1.08753785e-01f,-4.09327537e-01f,
    +7.86173582e-01f,-3.41394722e-01f,+7.03137159e-01f,+7.17584550e-01f,-3.49034339e-01f,
    +9.29405168e-02f,-3.76901180e-01f,-3.92250001e-01f,-3.18915993e-01f,+1.39627561e-01f,
    +1.94616675e-01f,-9.50421691e-02f,-1.41358316e-01f,-3.80806506e-01f,+3.17378454e-02f,
    -4.41446275e-01f,+1.13333724e-02f,+7.13441312e-01f,-4.72649336e-01f,+4.29161310e-01f,
    -5.32865942e-01f,-4.80481833e-01f,-4.89192575e-01f,+4.18146923e-02f,-4.19126898e-01f,
    +7.73180783e-01f,-1.59330368e-01f,+5.78567982e-01f,-5.19600630e-01f,-5.57943106e-01f,
    -1.91528425e-01f,-4.01101947e-01f,-5.85256577e-01f,-4.39665586e-01f,-5.56362331e-01f,
    -2.25048989e-01f,-5.60703933e-01f,-2.25979052e-02f,-5.59837461e-01f,-3.65721524e-01f,
    -4.42565799e-01f,-1.06395376e+00f,+2.97826171e-01f,-8.08359683e-01f,-4.41891372e-01f,
    -3.53640825e-01f,+1.90785471e-02f,-2.71608561e-01f,-8.16106945e-02f,-9.18446362e-01f,
    -2.22206458e-01f,-2.57461339e-01f,-4.32237446e-01f,-4.57622439e-01f,-4.06748235e-01f,
    -3.20580155e-01f,-1.76285028e-01f,-2.15673909e-01f,-1.04280105e-02f,-1.10072099e-01f,
    +1.44284710e-01f,+2.85908908e-01f,-7.78193355e-01f,+1.27248287e-01f,-1.20225295e-01f,
    +1.98055953e-01f,+1.38998777e-01f,+3.25679660e-01f,+1.35411456e-01f,-8.34125042e-01f,
    +1.77622467e-01f,-8.12193528e-02f,+2.15116829e-01f,-5.77242076e-01f,-2.34874785e-01f,
    -9.37557697e-01f,+4.40567657e-02f,+1.17429137e-01f,-4.58888710e-02f,+4.11454542e-03f,
    -6.49412628e-03f,-2.88751006e-01f,+1.48058414e-01f,-6.18077278e-01f,+1.03390597e-01f,
    +1.62448540e-01f,+1.66433603e-01f,+2.36883000e-01f,+3.77889186e-01f,+2.12935865e-01f,
    +8.27962607e-02f,+1.82657287e-01f,+5.75521253e-02f,+3.73201251e-01f,+1.46029219e-01f,
    -8.83501396e-03f,+3.22876930e-01f,+1.03225701e-01f,+3.95123154e-01f,+2.86507368e-01f,
    +1.45918325e-01f,+2.18218297e-01f,+2.60065310e-02f,+8.43167398e-03f,+2.38643765e-01f,
    +3.27154756e-01f,+3.79117399e-01f,-1.13440666e-03f,-1.05454493e-02f,+1.56674325e-01f,
    +8.97176266e-02f,+1.85921803e-01f,-8.78285691e-02f,+2.43646860e-01f,+1.90163389e-01f,
    +8.32414404e-02f,+7.59174535e-03f,-5.52441999e-02f,+1.54563949e-01f,+6.95338100e-02f,
    +3.14150363e-01f,+1.45753818e-02f,+5.16207248e-04f,+8.82704258e-02f,+4.52328920e-02f,
    +5.65444291e-01f,+1.61474258e-01f,+1.39204651e-01f,+2.71240056e-01f,+6.34400249e-02f,
    +1.68158822e-02f,+3.86379123e-01f,+2.26035073e-01f,+1.88888967e-01f,+7.35624433e-02f,
    +1.28004089e-01f,+6.28236309e-03f,+3.67317684e-02f,+2.99553126e-01f,-1.54682904e-01f,
    +2.16816649e-01f,+2.60960698e-01f,-2.15483289e-02f,+3.50724570e-02f,+1.60488412e-02f,
    +3.34766477e-01f,-2.04253010e-02f,-3.40953954e-02f,+5.34442291e-02f,+2.53840774e-01f,
    +5.71614085e-03f,-3.07903495e-02f,+4.07507747e-01f,-4.67794210e-01f,-2.27720469e-01f,
    +1.26775786e-01f,+2.20865523e-03f,+4.22055513e-01f,+2.86521912e-01f,-1.04391426e-01f,
    +3.47412378e-01f,+9.65687782e-02f,+3.16007346e-01f,+3.29182386e-01f,-9.03096497e-02f,
    +7.20783323e-02f,-2.08536983e-02f,-1.35806739e-01f,-6.22305162e-02f,+3.25997293e-01f,
    +2.29229242e-01f,+2.28015706e-01f,+8.62080753e-02f,-4.88388278e-02f,+6.59296662e-02f,
    +4.55703586e-02f,-9.49579179e-02f,+5.19607723e-01f,-7.81545490e-02f,+6.01476943e-03f,
    -1.98098645e-01f,+5.43885604e-02f,-1.07561857e-01f,+6.97649717e-02f,+1.79183662e-01f,
    -3.66655529e-01f,-6.45425767e-02f,-1.50225043e-01f,+1.43354386e-01f,+2.35468745e-01f,
    +1.19374152e-02f,+1.84378490e-01f,+4.97915223e-02f,-1.17860455e-02f,-3.93855534e-02f,
    -1.42673533e-02f,-7.06429034e-03f,-2.76743621e-03f,+2.08031908e-01f,-1.90063789e-02f,
    +4.18445580e-02f,+2.14417335e-02f,+2.05524608e-01f,+1.26486599e-01f,+2.94977486e-01f,
    +1.64998770e-01f,-1.60575390e-01f,+1.18964046e-01f,-8.28959718e-02f,+2.17431813e-01f,
    +1.16843879e-01f,-1.69487849e-01f,-6.65148199e-02f,+5.94075806e-02f,+9.08201262e-02f,
    +5.62924862e-01f,+3.45148146e-01f,-3.43101591e-01f,+2.87039429e-01f,+3.21862139e-02f,
    -3.68973702e-01f,+2.82443404e-01f,-7.71604255e-02f,+1.64018393e-01f,+3.14263523e-01f,
    -2.58561254e-01f,+1.72575787e-01f,-8.51926431e-02f,-1.07346296e-01f,-4.17141497e-01f,
    -2.37291351e-01f,+3.26378234e-02f,-6.33752286e-01f,+7.91060850e-02f,+2.83505004e-02f,
    +8.91761389e-03f,+4.73114178e-02f,-3.82872019e-03f,-4.62630875e-02f,+1.88291594e-01f,
    -1.42298594e-01f,+2.74050266e-01f,+2.60049164e-01f,-5.39740920e-02f,+1.28777072e-01f,
    -1.09457090e-01f,+2.19327837e-01f,+8.96299481e-02f,-9.45933878e-01f,-2.38853931e-01f,
    +2.25760445e-01f,+4.89518702e-01f,-1.81568280e-01f,-2.12885961e-01f,-1.71443805e-01f,
    -2.50687897e-01f,-5.69779091e-02f,-2.23143294e-01f,+3.47185045e-01f,+1.41974121e-01f,
    -2.50098079e-01f,+7.22120330e-02f,-2.09512278e-01f,-1.13241725e-01f,-1.37951091e-01f,
    -2.06516951e-01f,+1.82715207e-01f,-3.61990258e-02f,-8.89295042e-02f,-3.11171170e-02f,
    +9.41776186e-02f,-1.38057917e-01f,+5.97663550e-03f,-1.07803953e+00f,-1.43187910e-01f,
    +2.25497469e-01f,-7.65269576e-03f,-1.77194387e-01f,-7.55224228e-02f,-1.60844058e-01f,
    +2.76321828e-01f,-1.42788207e-02f,-2.04691663e-01f,+3.38944867e-02f,-2.77544949e-02f,
    +1.38587460e-01f,+1.25185877e-01f,-1.45052746e-01f,+2.97478884e-01f,-9.13242251e-02f,
    +4.06242788e-01f,+4.37225789e-01f,-2.12325603e-01f,-9.39532295e-02f,-2.01426879e-01f,
    -1.51536927e-01f,+7.92429596e-02f,+6.15542866e-02f,+1.94171637e-01f,-1.34901360e-01f,
    -1.67934746e-01f,-9.33574289e-02f,-5.79599626e-02f,-1.92920133e-01f,+9.37144551e-03f,
    +1.19513676e-01f,-1.55137554e-01f,-4.40377742e-01f,+1.95645392e-02f,-1.49415612e-01f,
    -2.16958806e-01f,-6.95013940e-01f,-2.82105450e-02f,+2.24009648e-01f,+1.79042548e-01f,
    +3.11459750e-02f,-9.50458497e-02f,+5.63209355e-02f,+2.86021411e-01f,-1.78102911e-01f,
    -1.43877298e-01f,-1.59908608e-01f,+2.20391512e-01f,-3.03495318e-01f,-2.49933705e-01f,
    +1.85991600e-01f,-2.76642680e-01f,-1.82889685e-01f,+7.72037134e-02f,+2.99400866e-01f,
    +1.35573775e-01f,+2.81044245e-01f,+1.14599420e-02f,-1.11192577e-01f,+8.17033499e-02f,
    -1.81674257e-01f,+7.30664805e-02f,-1.39029428e-01f,-6.60632774e-02f,+3.64840031e-01f,
    -7.99528733e-02f,-2.19450876e-01f,-1.17959447e-01f,-2.41798431e-01f,+1.71333015e-01f,
    -7.80116022e-01f,-6.18338823e-01f,+6.48518324e-01f,-5.03268600e-01f,+3.41015786e-01f,
    +3.69615555e-01f,-4.80209917e-01f,+2.24417791e-01f,-5.40378392e-01f,+6.94434285e-01f,
    +2.73504883e-01f,-4.80362862e-01f,+3.27453345e-01f,-4.58706021e-01f,-5.98644435e-01f,
    -5.56367636e-01f,+3.38408172e-01f,+4.78382319e-01f,+7.39788786e-02f,-3.92726690e-01f,
    -5.71807861e-01f,-7.01022968e-02f,-5.48234701e-01f,-1.32212356e-01f,+1.90002233e-01f,
    -5.68389714e-01f,+1.25848278e-01f,-5.57910979e-01f,-5.30944407e-01f,-4.84940141e-01f,
    +5.64889967e-01f,-1.64596349e-01f,+3.90574783e-02f,+2.23759830e-01f,-4.12355363e-01f,
    -6.18326217e-02f,+1.38645664e-01f,-1.37716770e-01f,+1.07435718e-01f,+2.43020758e-01f,
    -1.76227868e-01f,+1.00339957e-01f,-8.93048644e-02f,-2.78433055e-01f,-2.46914163e-01f,
    -1.16865337e-01f,-5.71827255e-02f,-8.03762600e-02f,-1.94239188e-02f,-2.03257501e-01f,
    -4.32042241e-01f,-1.13302350e-01f,-7.20588956e-04f,+2.25004349e-02f,+7.34459460e-02f,
    +2.96120904e-02f,+2.20208727e-02f,+2.73506157e-02f,-2.32643723e-01f,+4.28521112e-02f,
    -2.93429613e-01f,+9.23323706e-02f,+1.61667749e-01f,+4.13709104e-01f,+4.75463010e-02f,
    +4.72741932e-01f,-4.48350996e-01f,-2.49828428e-01f,+1.11805148e-01f,-1.59841478e-01f,
    +3.33405018e-01f,+5.23625851e-01f,-1.22110128e-01f,+8.33616108e-02f,+2.40303278e-01f,
    -1.30984634e-01f,-1.98860168e-01f,-1.49819285e-01f,+3.01176935e-01f,+5.48269562e-02f,
    +2.77184665e-01f,-2.04616003e-02f,-9.06727910e-02f,-3.25572670e-01f,+1.73841164e-01f,
    -3.76878604e-02f,+2.77035981e-01f,+7.81716481e-02f,+5.95993161e-01f,+4.30027306e-01f,
    -8.84932801e-02f,+2.88861722e-01f,-6.09606085e-03f,+4.97945398e-01f,+4.57670271e-01f,
    -6.59970224e-01f,+2.89587051e-01f,+2.51583122e-02f,+2.96899408e-01f,-1.37483317e-03f,
    -1.38364181e-01f,-4.75335300e-01f,-1.93388015e-01f,-1.71763688e-01f,-6.10910691e-02f,
    +1.24158844e-01f,+9.95244309e-02f,-1.83558539e-01f,-1.96214318e-02f,-2.40985841e-01f,
    -1.94432154e-01f,-1.40445203e-01f,-9.69312713e-02f,-1.80086449e-01f,-3.74263436e-01f,
    -2.81518400e-01f,-2.18395203e-01f,-7.57760480e-02f,-1.73785403e-01f,+1.95849854e-02f,
    -4.00388986e-01f,-1.46261841e-01f,+3.48268114e-02f,-1.86307594e-01f,-1.60758123e-01f,
    -2.42167473e-01f,-1.69817600e-02f,+3.71506333e-01f,-1.01180434e-01f,-1.41812801e-01f,
    +1.75091445e-01f,+8.89200270e-02f,+1.69072956e-01f,-1.24366336e-01f,+1.83845207e-01f,
    +5.56896508e-01f,+7.74123073e-02f,+1.38560906e-01f,+2.39987493e-01f,+2.04878330e-01f,
    +5.28326035e-02f,+2.23325476e-01f,+1.24121532e-01f,+1.26944304e-01f,+1.44162849e-01f,
    +1.76832840e-01f,+3.90249453e-02f,+2.64420599e-01f,+8.19417462e-02f,-2.74146795e-01f,
    +1.31582215e-01f,+1.28662921e-02f,+3.48613709e-01f,+1.37143269e-01f,+1.62238225e-01f,
    +9.25608203e-02f,+1.69754565e-01f,+1.28898770e-01f,-3.67951673e-03f,+1.59860384e-02f,
    +9.44132581e-02f,-5.13251960e-01f,-9.29342508e-02f,+2.42752805e-02f,+2.34043561e-02f,
    -3.89901757e-01f,+4.42354605e-02f,-2.21364684e-02f,+8.15887153e-02f,-2.26305122e-03f,
    +1.42167464e-01f,+5.18003888e-02f,-3.94779146e-01f,+5.97521216e-02f,+1.47342324e-01f,
    +9.97970626e-02f,-4.97542143e-01f,-2.01593131e-01f,-6.25792682e-01f,-2.61175931e-02f,
    +1.32258505e-01f,+3.25433239e-02f,-6.26937672e-02f,-7.26331621e-02f,+1.81440324e-01f,
    -1.45220846e-01f,-8.54308128e-01f,-7.81415254e-02f,-6.47490621e-02f,+5.40765002e-02f,
    -7.81375825e-01f,-1.05446517e-01f,-2.55753040e-01f,+6.39938414e-02f,-1.06193028e-01f,
    -5.74426018e-02f,+8.11367407e-02f,+3.67481649e-01f,-6.90293536e-02f,-3.33071142e-01f,
    +9.64223221e-03f,+2.61927366e-01f,-1.38439417e-01f,-2.56900817e-01f,+4.47915643e-01f,
    -1.00901760e-01f,-2.93115944e-01f,+1.63172781e-01f,+5.77569842e-01f,+2.34574839e-01f,
    +3.90456736e-01f,+5.89956008e-02f,-1.25958309e-01f,-1.62062392e-01f,-2.33006373e-01f,
    -7.51303583e-02f,-9.27886724e-01f,-2.80692339e-01f,+3.70221794e-01f,-5.37507795e-02f,
    -7.95581043e-02f,-1.83880955e-01f,+1.87028453e-01f,-8.31268609e-01f,-6.98906898e-01f,
    +2.15939745e-01f,-1.00656426e+00f,+7.47893378e-02f,-2.08899915e-01f,-7.03806102e-01f,
    +6.73000365e-02f,-4.56511557e-01f,+2.12483421e-01f,-4.49030459e-01f,-2.49424919e-01f,
    +5.79707734e-02f,-7.74175763e-01f,+2.32354879e-01f,+1.45176962e-01f,+1.81756631e-01f,
    -7.24273145e-01f,-9.54850733e-01f,-8.43182027e-01f,+5.86896002e-01f,+8.01977068e-02f,
    -2.37775501e-02f,+4.35887575e-02f,-1.93647332e-02f,-8.96053433e-01f,+1.37765229e-01f,
    -1.04688728e+00f,+2.76112199e-01f,+2.59430915e-01f,-1.36156548e-02f,+5.04561998e-02f,
    -4.31336313e-01f,+2.28633285e-01f,+3.00622880e-01f,-2.56907027e-02f,+3.31420332e-01f,
    -2.78765202e-01f,-1.99268639e-01f,+1.84170902e-01f,-6.14980638e-01f,+3.09529126e-01f,
    -2.48189703e-01f,-6.91294134e-01f,+2.67117292e-01f,-6.13858998e-02f,+1.41161174e-01f,
    +2.13379294e-01f,+2.84219652e-01f,-3.03398352e-02f,+6.65922463e-02f,+2.12840433e-03f,
    +1.06590174e-01f,+3.20695400e-01f,-6.73301667e-02f,+2.93144405e-01f,-1.87636703e-01f,
    -7.25052655e-01f,+2.25495338e-01f,-1.15150809e-01f,+2.99415857e-01f,+2.12920025e-01f,
    +1.95828006e-01f,-6.74959123e-02f,+2.63575852e-01f,+6.79558218e-02f,-5.01864702e-02f,
    +3.77361268e-01f,-1.62923276e-01f,+3.46087426e-01f,+2.45626539e-01f,-1.38534889e-01f,
    +2.87044525e-01f,-1.83086723e-01f,+8.32102671e-02f,+1.06621377e-01f,-6.98494241e-02f,
    +2.03191802e-01f,-3.56158018e-02f,-1.19815376e-02f,-8.02502558e-02f,+4.34744135e-02f,
    +4.95691508e-01f,+2.49570653e-01f,-2.83005059e-01f,-9.00937542e-02f,+5.95055073e-02f,
    -1.31110907e-01f,-1.88815281e-01f,+2.71227479e-01f,-1.26713425e-01f,+1.14794932e-01f,
    -1.37700230e-01f,-6.15736544e-02f,-9.14091095e-02f,-4.36959982e-01f,+3.56318146e-01f,
    -6.30586505e-01f,-4.46310997e-01f,+2.36948073e-01f,-3.77298623e-01f,+3.32170069e-01f,
    +2.65165925e-01f,-3.94377321e-01f,+2.07023576e-01f,-4.70673352e-01f,+2.86613554e-01f,
    +4.06509429e-01f,-4.04883415e-01f,+2.53224552e-01f,-3.45282674e-01f,-3.53440762e-01f,
    -6.99005306e-01f,+1.95266530e-01f,+1.60620868e-01f,+3.21608871e-01f,-2.31847033e-01f,
    -2.17844814e-01f,+1.55924171e-01f,-2.01700315e-01f,-4.79669310e-02f,+5.96730113e-01f,
    -2.14635819e-01f,+2.25416765e-01f,-3.51872176e-01f,-4.72030163e-01f,-4.10077929e-01f,
    -2.98846930e-01f,+1.75337330e-01f,-4.60123420e-01f,-1.15406148e-01f,+2.65639096e-01f,
    -2.10061267e-01f,-1.32314220e-01f,+4.40195799e-01f,+4.97289561e-03f,-9.30870175e-02f,
    -1.47338539e-01f,-2.55649406e-02f,-1.88288718e-01f,-1.09936468e-01f,+3.77465278e-01f,
    -6.90175369e-02f,+1.08255059e-01f,-2.00065300e-01f,+2.42108792e-01f,+4.17520493e-01f,
    +4.35036361e-01f,-1.33791706e-02f,+4.73923646e-02f,-4.83648628e-02f,+5.00365458e-02f,
    -1.12439618e-01f,+1.80869237e-01f,+9.12663043e-02f,+3.93082529e-01f,-4.43987958e-02f,
    -1.45053044e-01f,-1.54858053e-01f,+4.09826279e-01f,-8.31862073e-03f,-3.23635399e-01f,
    -5.04389107e-01f,+2.02568024e-01f,-3.49572062e-01f,-9.19118524e-02f,+2.39628404e-01f,
    -3.85132551e-01f,-1.46167234e-01f,-1.91448510e-01f,+1.58810094e-02f,-1.75082073e-01f,
    -2.17356980e-01f,-5.45264222e-02f,-8.00495148e-02f,-2.18963355e-01f,-1.73994139e-01f,
    +7.06319362e-02f,+3.16134751e-01f,+2.21325591e-01f,-3.57484549e-01f,-3.01505983e-01f,
    -6.54359758e-02f,-3.17389578e-01f,-1.41788833e-02f,-1.88687220e-01f,-5.01348853e-01f,
    -1.18201554e-01f,-3.99908304e-01f,-2.68787891e-01f,-5.50914109e-01f,-9.61976826e-01f,
    +3.13329428e-01f,-1.56853092e+00f,+3.59905988e-01f,+1.98543280e-01f,-2.80759603e-01f,
    -5.78236163e-01f,+1.29891858e-01f,-1.34943813e-01f,+6.17386624e-02f,-2.04038203e-01f,
    +3.13665688e-01f,+1.10053346e-01f,-1.74072251e-01f,+2.82837182e-01f,-1.12804160e-01f,
    -2.11222261e-01f,-2.23484747e-02f,+3.16406608e-01f,-2.67445273e-03f,+4.18405563e-01f,
    +1.24072649e-01f,-1.79538056e-01f,-2.11596265e-01f,-1.62885293e-01f,+4.66215201e-02f,
    -3.64333689e-01f,-1.53179437e-01f,+4.89990413e-01f,-6.05431348e-02f,-1.94106445e-01f,
    -2.30218232e-01f,-2.38640592e-01f,-6.29234910e-01f,+6.57869697e-01f,+3.70052814e-01f,
    -3.12868893e-01f,+3.89785200e-01f,-1.14099860e+00f,-5.39195947e-02f,+2.74750650e-01f,
    -9.19110835e-01f,+3.49773526e-01f,-6.89600646e-01f,-1.00068498e+00f,+4.59384680e-01f,
    -1.91054642e-01f,+4.98616636e-01f,+3.20965201e-01f,+4.09029603e-01f,-3.44399065e-01f,
    -1.94706857e-01f,-1.05297707e-01f,+5.11747181e-01f,+3.29853982e-01f,+1.55380309e-01f,
    +4.67673510e-01f,-3.72972451e-02f,-7.31596649e-01f,+3.98972332e-01f,-2.52927482e-01f,
    +3.59285325e-01f,+4.73277390e-01f,+4.04750645e-01f,-9.14492384e-02f,-6.32807910e-01f,
    -3.60451132e-01f,+2.54263550e-01f,+4.17569093e-02f,+3.93259861e-02f,-4.00878727e-01f,
    +1.59113720e-01f,+3.71925272e-02f,-3.96395355e-01f,+6.06154613e-02f,+3.16811562e-01f,
    -5.85716248e-01f,+1.65759385e-01f,+3.30427170e-01f,+1.41462430e-01f,+1.76787615e-01f,
    +9.07374993e-02f,+3.83435071e-01f,+8.16040933e-02f,+4.18764383e-01f,+3.75920743e-01f,
    +2.96416320e-02f,-5.76582476e-02f,+5.41272014e-02f,-3.10317501e-02f,-3.39079440e-01f,
    +2.52992660e-02f,+3.30949128e-01f,-4.98375739e-05f,+1.72731057e-01f,+1.40768617e-01f,
    -7.42627859e-01f,+8.25628340e-02f,-6.53089285e-01f,-3.26462090e-01f,-9.99135450e-02f,
    -1.46479994e-01f,-2.38565609e-01f,-9.88682359e-02f,-6.07424304e-02f,-2.07521677e-01f,
    +1.04657225e-02f,-8.36502984e-02f,+2.54346803e-02f,+3.54101062e-02f,-1.57902494e-01f,
    -3.32946442e-02f,-7.29246363e-02f,-3.81202489e-01f,-4.14149463e-02f,+7.22132996e-02f,
    -1.92081138e-01f,+1.05225764e-01f,+1.34163918e-02f,-1.21127635e-01f,-8.33930448e-02f,
    -1.80591864e-03f,+1.52602583e-01f,-6.01254292e-02f,-3.41830939e-01f,-9.55018476e-02f,
    +4.90530953e-02f,-3.49138379e-02f,+4.54586633e-02f,-5.05614690e-02f,-2.36680055e+00f,
    +5.30125439e-01f,-1.35326847e-01f,+3.97089690e-01f,-1.12325060e+00f,-1.36148763e+00f,
    +4.82120186e-01f,-5.39775133e-01f,+1.39249280e-01f,-5.85855126e-01f,-4.08930689e-01f,
    +1.94321752e-01f,-8.54228795e-01f,+2.40656123e-01f,+2.98694402e-01f,+4.41103607e-01f,
    -1.07728469e+00f,-8.59055459e-01f,-9.92922366e-01f,+6.48428500e-01f,+3.92435312e-01f,
    -1.91548895e-02f,+2.30437770e-01f,-2.85241511e-02f,-2.10833505e-01f,+4.25589502e-01f,
    -9.40881968e-01f,+2.37160683e-01f,+2.32195020e-01f,+4.77693260e-01f,-1.27446756e-01f,
    -1.40952528e-01f,-4.17382777e-01f,-3.94903481e-01f,-1.04220763e-01f,+1.52464718e-01f,
    -8.05933535e-01f,-7.41414666e-01f,-1.29312754e-01f,-4.62408096e-01f,+1.41932897e-03f,
    -3.77272546e-01f,-3.74363422e-01f,-1.34005308e-01f,-5.81179917e-01f,+9.80330333e-02f,
    -2.14053571e-01f,+1.17824525e-01f,-6.16372585e-01f,-4.88125861e-01f,-6.77554309e-01f,
    +8.41260031e-02f,-3.15450579e-01f,+3.14539336e-02f,-3.31433266e-01f,-6.66551590e-02f,
    -4.24210072e-01f,-2.44756252e-01f,-1.91453069e-01f,-8.97840485e-02f,-8.66851062e-02f,
    -1.99519426e-01f,-5.88344693e-01f,+5.65574914e-02f,-2.52719790e-01f,-6.56866729e-01f,
    +1.64486408e-01f,-6.23519301e-01f,+3.27238590e-01f,+2.64954716e-01f,-5.44301927e-01f,
    +1.87570468e-01f,-5.00985026e-01f,+1.47091627e-01f,+3.20020795e-01f,-4.23234910e-01f,
    +1.77883521e-01f,-6.23413444e-01f,-5.63399315e-01f,-5.13168871e-01f,+2.12129593e-01f,
    +1.58146620e-01f,+2.34242618e-01f,-4.90965724e-01f,-6.69225514e-01f,-5.77132590e-02f,
    -4.46689814e-01f,-8.52063447e-02f,+5.01565337e-02f,-5.38718998e-01f,+3.61600727e-01f,
    -5.78836620e-01f,-5.73724091e-01f,-5.90545118e-01f,-3.22362304e-01f,+3.82847458e-01f,
    -4.59022596e-02f,+1.29624277e-01f,+2.87813276e-01f,-1.00824907e-02f,+3.26592058e-01f,
    +3.16293269e-01f,+2.57845074e-01f,+4.99771446e-01f,+7.43895844e-02f,+2.61530310e-01f,
    +4.14868593e-01f,+1.27258897e-01f,+2.69966245e-01f,+1.33305803e-01f,+8.60335305e-02f,
    +7.48488903e-02f,+4.59929347e-01f,+4.29276615e-01f,+3.33932787e-01f,+2.00861543e-02f,
    +1.76609665e-01f,-1.65173888e-01f,+1.00400433e-01f,-1.44050747e-01f,+4.93074745e-01f,
    +5.82144968e-02f,+3.61356139e-02f,+1.45715326e-01f,+3.61532606e-02f,+1.91347867e-01f,
    +1.33761197e-01f,-2.29564637e-01f,+1.44991919e-01f,-2.75424182e-01f,+2.62979150e-01f,
    -1.75975800e-01f,+1.36470467e-01f,+2.97638446e-01f,-1.10534459e-01f,-4.25487161e-02f,
    -9.63038504e-02f,-1.88261084e-02f,-1.10571958e-01f,-5.85989654e-02f,+3.15357655e-01f,
    -9.77684781e-02f,-1.47210419e-01f,-3.07024986e-01f,+1.57446846e-01f,+3.18738192e-01f,
    +1.78793654e-01f,-3.05512041e-01f,-1.72940433e-01f,+4.78426665e-02f,-1.56511545e-01f,
    +2.46194638e-02f,+4.38010134e-02f,-3.18345547e-01f,+2.72759411e-04f,-3.86845529e-01f,
    -1.50542557e-02f,-1.25535980e-01f,+3.40368390e-01f,-3.84530187e-01f,-8.36278141e-01f,
    +4.03358757e-01f,-1.30623532e-02f,+1.50994211e-01f,-1.65499881e-01f,-9.85370696e-01f,
    +2.45937526e-01f,-5.22201061e-01f,+2.70657271e-01f,-5.13448596e-01f,-1.87015951e-01f,
    +2.47945994e-01f,-7.17905819e-01f,+2.87749827e-01f,+2.10034892e-01f,+1.65223464e-01f,
    -1.13709652e+00f,-3.02285403e-01f,-1.44107234e+00f,+5.40142059e-01f,+2.61760235e-01f,
    -4.96242940e-02f,+2.54362762e-01f,+1.66090149e-02f,-7.68347979e-01f,+1.92060798e-01f,
    -1.38955545e+00f,+1.41916081e-01f,+1.77092761e-01f,+2.12461114e-01f,-1.39208108e-01f,
    +4.32337552e-01f,+7.79062361e-02f,-1.54177800e-01f,+1.77670196e-01f,-2.51629382e-01f,
    -7.15442151e-02f,-3.14160287e-01f,-2.51630634e-01f,+5.02346516e-01f,-2.31081054e-01f,
    +5.40562451e-01f,+5.23210049e-01f,-3.67728710e-01f,-6.53820634e-01f,-2.73843467e-01f,
    -3.32383394e-01f,-4.54874367e-01f,-3.55438799e-01f,-2.42131352e-02f,-3.19814652e-01f,
    +7.82344267e-02f,-2.40582496e-01f,+6.70195818e-02f,-3.43224913e-01f,-5.57686202e-02f,
    +1.13715246e-01f,-1.95495889e-01f,+1.62155509e-01f,-5.70846200e-01f,-3.52453619e-01f,
    -3.48565489e-01f,+4.33954418e-01f,+6.43374503e-01f,-1.77610025e-01f,-1.01974867e-01f,
    +4.29527372e-01f,-1.40922457e-01f,+3.19761366e-01f,+3.40993941e-01f,+6.73040077e-02f,
    +3.85494441e-01f,-1.70580596e-01f,+3.04749936e-01f,+5.76551199e-01f,-6.99955001e-02f,
    +2.89146125e-01f,-1.58706218e-01f,-6.02478795e-02f,-1.50448009e-01f,+3.88997704e-01f,
    +2.19302744e-01f,+2.62611181e-01f,+1.04778204e-02f,+5.35227619e-02f,-5.96462414e-02f,
    -9.79196727e-02f,-1.18375205e-01f,+7.29611397e-01f,-2.79043484e-02f,+3.80746067e-01f,
    -2.06707671e-01f,-1.97922558e-01f,-1.17237598e-01f,+4.24578726e-01f,-2.46222273e-01f,
    +3.79224092e-01f,+4.96037543e-01f,-1.27165318e-01f,+4.37979132e-01f,-3.08595240e-01f,
    -2.11581573e-01f,+5.57743251e-01f,-1.58473536e-01f,+5.60018420e-01f,-2.95462489e-01f,
    -1.84181705e-01f,+4.86079991e-01f,-1.97826743e-01f,+4.77328151e-01f,+5.18320680e-01f,
    +5.90398312e-01f,-2.44490296e-01f,-2.05514684e-01f,-4.17837620e-01f,+5.73195100e-01f,
    +5.00960767e-01f,-6.14977553e-02f,+6.68272078e-01f,-8.50405842e-02f,-1.08885549e-01f,
    +5.12357056e-01f,-2.17328891e-01f,+4.06424373e-01f,+6.10629618e-01f,+6.19942665e-01f,
    +9.86810401e-02f,-6.25695467e-01f,+6.64934158e-01f,+8.63878876e-02f,-5.48637271e-01f,
    +9.78832766e-02f,-7.49003112e-01f,-9.07612517e-02f,+2.66945213e-01f,-6.99636638e-01f,
    +2.26532102e-01f,-1.43062128e-02f,-6.30850315e-01f,+2.16820985e-01f,-2.09126711e-01f,
    +2.00734362e-01f,+1.88894242e-01f,-1.13094617e-02f,-3.50334384e-02f,-6.40130103e-01f,
    -1.82219759e-01f,-1.57825500e-01f,+1.85215726e-01f,-3.25164311e-02f,+1.88081756e-01f,
    -2.71692388e-02f,-7.92561054e-01f,+1.61225885e-01f,+5.99188879e-02f,+1.62083358e-02f,
    +2.44794980e-01f,+2.20896721e-01f,+1.72685847e-01f,+6.01576924e-01f,-2.84061015e-01f,
    -3.95393729e-01f,+6.44241810e-01f,-5.17383575e-01f,+6.81795359e-01f,+6.88123465e-01f,
    -5.42777359e-01f,+7.22408891e-01f,-3.75878870e-01f,+7.37380922e-01f,+7.04994917e-01f,
    -5.41629791e-01f,+5.04758120e-01f,-4.55913633e-01f,-5.64042389e-01f,-2.90331811e-01f,
    +5.79924822e-01f,+6.65297031e-01f,+4.23636407e-01f,-3.41325253e-01f,-6.21591985e-01f,
    -1.14948004e-01f,-4.52852130e-01f,+3.70549001e-02f,+5.80986917e-01f,-4.49062020e-01f,
    +7.04135120e-01f,-4.02101398e-01f,-5.40597856e-01f,-6.05681896e-01f,+2.04838276e-01f,
    +5.99400759e-01f,-1.38707733e+00f,-4.59217250e-01f,+4.26218331e-01f,-6.74853027e-01f,
    +4.97845739e-01f,+6.38549447e-01f,-5.15268445e-01f,+5.10104239e-01f,-5.04036009e-01f,
    +9.00218189e-01f,+2.77029157e-01f,-5.05073726e-01f,+5.94364882e-01f,-4.30396140e-01f,
    -6.43138289e-01f,-4.01871622e-01f,+7.59359717e-01f,+3.30658793e-01f,+3.52086633e-01f,
    -3.26572001e-01f,-4.47156340e-01f,-5.20438515e-02f,-5.92046738e-01f,+2.13368535e-02f,
    +7.13678002e-01f,-4.45460171e-01f,+5.14311910e-01f,-5.46330631e-01f,-5.71699262e-01f,
    -6.23320937e-01f,+2.73867667e-01f,-6.04634464e-01f,+2.82135934e-01f,+5.67636371e-01f,
    -7.47524559e-01f,+4.57062870e-01f,-3.34754497e-01f,-7.12152541e-01f,+4.81290221e-01f,
    -5.49513280e-01f,+4.81074661e-01f,-4.81368721e-01f,-4.53611672e-01f,+4.74295110e-01f,
    -5.45063138e-01f,+4.69366789e-01f,+2.91805118e-01f,+2.98056334e-01f,-7.49785066e-01f,
    -5.37811637e-01f,-6.14157856e-01f,+5.71796477e-01f,+2.92376280e-01f,-8.59377235e-02f,
    +4.11867768e-01f,+5.39818294e-02f,-8.57692719e-01f,+4.39339370e-01f,-5.53302169e-01f,
    +2.35086769e-01f,+3.87677342e-01f,+2.90118784e-01f,-4.38801765e-01f,-3.40102553e-01f,
    +1.17028821e+00f,+5.73966742e-01f,-5.25667667e-02f,+4.59074825e-01f,-2.83802360e-01f,
    -2.92527437e-01f,+2.46064350e-01f,-2.87593156e-01f,+3.50562066e-01f,+1.05831653e-01f,
    -2.04567358e-01f,+3.27263325e-01f,-3.19371000e-02f,+3.82690877e-01f,+3.53037089e-01f,
    +6.20153666e-01f,-5.46592958e-02f,-3.17894965e-01f,-7.99270496e-02f,-3.13574195e-01f,
    +3.23168635e-01f,-4.06854302e-02f,+4.05665010e-01f,-1.53859869e-01f,-5.99987626e-01f,
    +4.99090105e-01f,+2.78529767e-02f,+6.16218746e-01f,+3.14852059e-01f,+4.21898067e-01f,
    +1.97869197e-01f,-1.50815845e-01f,+3.50212127e-01f,+8.44741687e-02f,-3.86869013e-02f,
    -2.17765402e-02f,-8.68093371e-02f,+4.58613373e-02f,+7.07164332e-02f,-2.55541116e-01f,
    -6.34220149e-03f,+1.31248459e-01f,+2.45131537e-01f,+9.23791081e-02f,+1.66263089e-01f,
    +2.47782730e-02f,+8.22798163e-02f,+3.73831019e-02f,-7.44125294e-03f,+1.55697465e-01f,
    +4.86757979e-02f,-9.80199948e-02f,-1.06194215e-02f,-1.04432747e-01f,-8.75333250e-02f,
    -9.32596475e-02f,+4.15197294e-03f,+9.70877260e-02f,+1.32433236e-01f,+4.53535542e-02f,
    +4.95862998e-02f,-7.53126517e-02f,-2.89150804e-01f,-6.44682571e-02f,+5.30763005e-04f,
    -7.72126019e-02f,+3.77894044e-01f,-4.26972210e-02f,+1.23457141e-01f,+1.02250442e-01f,
    -1.65592767e-02f,-1.16619408e-01f,-1.23183697e-01f,+4.97185551e-02f,+1.18643325e-02f,
    -8.79379883e-02f,+1.01444542e-01f,-9.58248526e-02f,-5.46845682e-02f,-2.16115505e-01f,
    +3.27344947e-02f,+4.07502711e-01f,-6.54141279e-03f,-6.17639720e-01f,-3.62339877e-02f,
    -1.08294547e-01f,-7.08021522e-02f,-5.89489453e-02f,-5.90541720e-01f,-2.45613344e-02f,
    +9.97282863e-02f,-2.92278290e-01f,-1.40023872e-01f,-1.16053512e-02f,+3.66242111e-01f,
    -5.39344311e-01f,+1.08161819e+00f,+7.25031614e-01f,-3.44314933e-01f,+5.39379299e-01f,
    -4.00794744e-01f,-5.48168182e-01f,+6.45499706e-01f,-2.49340490e-01f,+5.89618027e-01f,
    -1.92382872e-01f,-2.94575870e-01f,+6.69879377e-01f,-9.05848920e-01f,+5.48306048e-01f,
    +4.86767977e-01f,+6.00480497e-01f,-4.59244281e-01f,-8.11470687e-01f,-9.84539211e-01f,
    +1.04824138e+00f,+5.33137202e-01f,+4.49179998e-03f,+5.98852634e-01f,-4.90619987e-02f,
    -5.98198891e-01f,+6.65386796e-01f,-4.52643484e-01f,+7.59196639e-01f,+7.21677423e-01f,
    +7.09459841e-01f,+2.19465867e-01f,-6.40910506e-01f,+1.16514981e+00f,+1.07103324e+00f,
    -9.40976083e-01f,+1.07981575e+00f,-1.00518298e+00f,-9.49075580e-01f,+1.04077113e+00f,
    -5.03320992e-01f,+9.25687194e-01f,-8.53431404e-01f,-7.09936798e-01f,+1.04546893e+00f,
    -1.88573253e+00f,+1.06659842e+00f,+1.01347053e+00f,+1.07205474e+00f,-9.68600392e-01f,
    -1.35820889e+00f,-1.36703873e+00f,+1.27740860e+00f,+1.17461669e+00f,-8.06601122e-02f,
    +1.08966708e+00f,-1.06746674e-01f,-6.74045444e-01f,+1.11017466e+00f,-8.36812854e-01f,
    +8.66671145e-01f,+1.11562526e+00f,+1.05688274e+00f,+1.94265023e-02f,+5.42798303e-02f,
    +1.33785620e-01f,+2.62558579e-01f,-7.99049884e-02f,+1.49721876e-01f,-1.55803874e-01f,
    -1.19874604e-01f,+2.19306037e-01f,+7.06345960e-02f,+1.65497437e-01f,+2.11111620e-01f,
    -7.89696500e-02f,+1.23567142e-01f,+7.35718533e-02f,+1.58301741e-01f,+2.07764983e-01f,
    +1.75518934e-02f,+8.90428782e-04f,-2.70999461e-01f,-1.36490420e-01f,+2.28325710e-01f,
    +8.51283148e-02f,-3.73039022e-02f,+1.98408037e-01f,+6.63689524e-02f,-8.78446922e-03f,
    +1.51685283e-01f,-7.09195197e-01f,+1.02379814e-01f,+2.55596042e-01f,+6.24797978e-02f,
    +1.27571613e-01f,-1.18601203e-01f,+2.94394195e-01f,+2.68045783e-01f,-1.46697044e-01f,
    +5.70055544e-02f,+2.86934227e-01f,-9.97174531e-03f,+7.82958493e-02f,+2.70991214e-02f,
    +8.85929689e-02f,-3.15167278e-01f,-1.76800743e-01f,+2.21271545e-01f,+8.26436728e-02f,
    +2.52163410e-01f,+1.94727778e-01f,+1.91627964e-01f,-1.13264181e-01f,-1.89184934e-01f,
    -4.02676314e-01f,+8.56535956e-02f,+2.39181086e-01f,-9.76127833e-02f,+9.23073888e-02f,
    -3.81077640e-02f,+3.45184617e-02f,+1.00714326e-01f,+1.71013623e-02f,+1.23277634e-01f,
    +2.59048700e-01f,+1.66685313e-01f,+1.93573192e-01f,-1.73111960e-01f,+3.80894274e-01f,
    +6.81330860e-02f,-6.82223812e-02f,+5.63692033e-01f,+5.60770296e-02f,-8.77443552e-02f,
    +4.71410602e-01f,-4.89070900e-02f,+4.86161053e-01f,-5.37619829e-01f,-2.30574697e-01f,
    +3.26411307e-01f,-5.20434603e-02f,+4.40909773e-01f,+4.77001578e-01f,+4.88087833e-01f,
    -3.56653035e-01f,-3.15357834e-01f,-5.21460295e-01f,-5.28615601e-02f,+4.79135215e-01f,
    -1.46510825e-01f,+5.61797798e-01f,-4.19802740e-02f,+2.69518048e-01f,+5.65048933e-01f,
    -3.49809885e-01f,+4.93737161e-01f,+3.87815267e-01f,+4.87390250e-01f,-1.15502942e+00f,
    -4.32717025e-01f,+8.25417489e-02f,+2.34171256e-01f,-5.66304803e-01f,+1.14201218e-01f,
    -8.37684155e-01f,-5.72024643e-01f,+2.23733112e-01f,-1.20315683e+00f,-2.23632827e-02f,
    -1.67839932e+00f,-1.29592919e+00f,+2.17374805e-02f,-7.11308956e-01f,-7.97522292e-02f,
    +1.12108521e-01f,-2.72794440e-02f,-1.08529615e+00f,-4.70968276e-01f,-1.04171777e+00f,
    -6.53429031e-02f,+3.56741458e-01f,-9.88012031e-02f,+3.96025658e-01f,+3.75239663e-02f,
    -6.59298658e-01f,+3.07830542e-01f,-1.01903558e+00f,-8.05097446e-03f,-1.72574013e-01f,
    +2.69408524e-01f,-3.24988723e-01f,+2.95756966e-01f,-2.29026914e-01f,-3.53459604e-02f,
    +3.75099152e-01f,+1.40300930e-01f,+4.27153677e-01f,-2.23453432e-01f,+1.49019703e-01f,
    +2.55258828e-01f,+2.44108036e-01f,-1.55859113e-01f,+6.46174014e-01f,-1.62356142e-02f,
    -1.94560438e-01f,+1.00022532e-01f,-1.58024281e-01f,+1.60738021e-01f,-5.01287699e-01f,
    +2.62118459e-01f,-2.11369634e-01f,+1.86252534e-01f,+2.20087934e-02f,-1.09614454e-01f,
    -1.16149761e-01f,+6.09162338e-02f,+2.64591932e-01f,-1.67924911e-01f,+1.12759443e-02f,
    -3.73998433e-01f,+2.02640027e-01f,+2.45818961e-02f,+6.52317584e-01f,+5.69601059e-01f,
    -3.78262922e-02f,-2.08583415e-01f,+4.43829566e-01f,-5.60353026e-02f,+6.15633905e-01f,
    +3.98781866e-01f,+1.13102719e-01f,+4.37557340e-01f,-7.97618851e-02f,+1.33640364e-01f,
    +4.62728947e-01f,+8.93167183e-02f,+4.03296202e-01f,-2.20418349e-02f,-2.51869368e-03f,
    +7.58304894e-02f,+4.37974960e-01f,+6.69684231e-01f,+3.36073011e-01f,-1.44813647e-02f,
    +1.07813135e-01f,-1.77129905e-03f,+1.31274546e-02f,-9.15082619e-02f,+6.62622929e-01f,
    +3.69166397e-02f,+2.77923584e-01f,-2.58528382e-01f,-1.44094884e-01f,-5.35880812e-02f,
    +4.88177175e-03f,-3.80297787e-02f,-9.74193402e-03f,-1.09013550e-01f,+9.88604724e-02f,
    +8.16319361e-02f,+3.20287645e-02f,-1.06258720e-01f,+6.02429435e-02f,+1.13151828e-03f,
    +1.78547144e-01f,-6.43575788e-02f,+1.71964187e-02f,+2.03966409e-01f,+8.12583268e-02f,
    +2.49010146e-01f,+2.21266910e-01f,+8.44175816e-02f,-8.80775694e-03f,+1.44710377e-01f,
    -2.79456288e-01f,-5.70196100e-02f,+1.23808518e-01f,-7.07097277e-02f,+5.99396192e-02f,
    -3.74161056e-03f,-5.72323091e-02f,+9.23719555e-02f,+5.22551313e-02f,-4.80914675e-02f,
    +1.43687474e-02f,+2.71331910e-02f,-1.70690596e-01f,-3.26838881e-01f,-3.69329862e-02f,
    +3.81540418e-01f,-5.49594700e-01f,+4.03960675e-01f,-1.98142946e-01f,+8.16907093e-04f,
    +4.42866921e-01f,-2.71249086e-01f,+3.07681203e-01f,-1.18101023e-01f,-3.26956272e-01f,
    +2.65083402e-01f,-1.47617068e-02f,+2.37644359e-01f,+4.33559030e-01f,+7.73923099e-02f,
    -4.60703634e-02f,-3.64752829e-01f,-1.96150720e-01f,+2.53385097e-01f,+3.19564074e-01f,
    -1.52403623e-01f,+3.41008067e-01f,-1.35900080e-01f,-2.47389674e-01f,+3.07133019e-01f,
    -5.93217425e-02f,+2.23763570e-01f,+3.74724984e-01f,+4.53050464e-01f,+3.94884616e-01f,
    +4.32980508e-01f,-5.46742320e-01f,-1.74444929e-01f,+3.25520337e-01f,-1.06165916e-01f,
    +4.23052251e-01f,+5.67405105e-01f,-2.04314753e-01f,+2.64674008e-01f,-1.36707351e-01f,
    +4.80696619e-01f,+4.19130117e-01f,-1.67833358e-01f,+4.44451898e-01f,-1.56807333e-01f,
    -2.36240506e-01f,-1.09464601e-01f,+3.99787039e-01f,+6.46107018e-01f,+5.38313568e-01f,
    -2.97159217e-02f,-3.12985301e-01f,-1.28875181e-01f,-2.34764278e-01f,+4.58429083e-02f,
    +2.44005665e-01f,-2.93565363e-01f,+4.69568610e-01f,-7.48178214e-02f,-2.20156923e-01f,
    -1.71326905e-01f,-2.07733691e-01f,+5.63556612e-01f,-1.21376812e+00f,-2.16710106e-01f,
    +3.34517032e-01f,-5.60470760e-01f,-6.41649067e-02f,-6.08386025e-02f,-3.78230214e-01f,
    -1.28475251e-02f,-5.31473398e-01f,-1.09823629e-01f,-2.34694585e-01f,-4.75903869e-01f,
    +2.56577488e-02f,-6.22375667e-01f,-3.63201082e-01f,-7.02129960e-01f,-1.87485851e-02f,
    +2.00347453e-01f,+7.01948702e-02f,-6.29895985e-01f,-3.58842403e-01f,-1.34856671e-01f,
    -1.09734960e-01f,-5.07228076e-02f,+3.10636610e-01f,-1.82881936e-01f,+1.08377770e-01f,
    -5.35779595e-01f,-4.39971089e-01f,-2.47826323e-01f,-2.77278930e-01f,-5.91296434e-01f,
    -7.83708394e-02f,+6.03523552e-01f,-4.35710579e-01f,+4.95197982e-01f,-7.74457216e-01f,
    -3.80184025e-01f,+4.27909613e-01f,-1.83287442e-01f,+5.62098205e-01f,-4.76685286e-01f,
    -4.84320551e-01f,+4.89293665e-01f,-4.35740530e-01f,+4.98406023e-01f,+4.03798908e-01f,
    +4.74217795e-02f,-4.24146503e-01f,-3.68618309e-01f,-2.66819477e-01f,+5.54783106e-01f,
    +4.12954777e-01f,+2.65884083e-02f,+3.85253638e-01f,-6.24405853e-02f,-6.45165861e-01f,
    +4.97501820e-01f,-2.69361317e-01f,+6.12448514e-01f,+5.48067212e-01f,+4.84045088e-01f,
    -4.73543078e-01f,-3.20353776e-01f,+3.75782490e-01f,+4.92723495e-01f,-2.45607924e-02f,
    +3.43121104e-02f,-4.73589987e-01f,+3.43567692e-03f,-6.72693029e-02f,-2.37895623e-01f,
    +6.25336692e-02f,+3.42333257e-01f,-2.55473226e-01f,-1.06550418e-02f,+1.83273777e-01f,
    -6.07144497e-02f,-6.48958832e-02f,+2.11734995e-01f,+7.73947611e-02f,-4.57262099e-02f,
    +1.73944250e-01f,-3.78717244e-01f,+8.95127747e-03f,-6.49675280e-02f,-8.24500546e-02f,
    -4.12790217e-02f,-4.70338076e-01f,-9.07720998e-02f,+1.71773374e-01f,-9.98136997e-02f,
    -8.97026882e-02f,+3.22643034e-02f,-2.66653985e-01f,-3.08196127e-01f,-2.30396707e-02f,
    +1.91428244e-01f,+8.99435356e-02f,+1.42708063e-01f,+1.27586558e-01f,+1.03177607e-01f,
    +1.06633171e-01f,-2.42211670e-02f,+8.23008642e-02f,-1.10406950e-01f,+5.80635406e-02f,
    +1.88707307e-01f,+1.64274886e-01f,+1.53054371e-01f,+1.43981755e-01f,+4.88342009e-02f,
    +1.05875812e-01f,+1.48277134e-01f,+1.77860022e-01f,+4.34532791e-01f,+7.46452063e-02f,
    -5.37059829e-02f,+2.18649521e-01f,+5.36854528e-02f,+2.04802334e-01f,+1.89396724e-01f,
    +1.71905711e-01f,+1.43119499e-01f,+1.80720896e-01f,+2.12877281e-02f,-2.12355420e-01f,
    +2.44258270e-01f,-2.49394059e-01f,-5.09402692e-01f,+7.62714028e-01f,-5.66830933e-01f,
    +2.68572662e-02f,+1.72335923e-01f,-4.62877929e-01f,+2.42704645e-01f,-5.60995877e-01f,
    +1.32018477e-01f,+1.19722053e-01f,-5.76966763e-01f,+5.11591673e-01f,-6.58121109e-01f,
    -6.22180641e-01f,-7.40328193e-01f,+2.77339131e-01f,+4.80491102e-01f,+2.66945273e-01f,
    -4.33734626e-01f,-5.70741713e-01f,-6.52490854e-02f,-5.55114388e-01f,+1.96550768e-02f,
    -1.10398561e-01f,-4.81878161e-01f,+1.12795480e-01f,-4.98520225e-01f,-4.50275421e-01f,
    -5.86108625e-01f,-1.84527814e-01f,-9.64525878e-01f,+9.93715346e-01f,+7.97925413e-01f,
    -5.17026246e-01f,+7.59817958e-01f,-1.47683883e+00f,-1.36183608e+00f,+6.07777178e-01f,
    -1.15504611e+00f,+7.55221784e-01f,-1.02340066e+00f,-1.27841985e+00f,+6.42967463e-01f,
    -1.17570972e+00f,+6.72054648e-01f,+5.73764622e-01f,+7.48456955e-01f,-1.01056719e+00f,
    -1.28285813e+00f,-8.20594788e-01f,+9.38660204e-01f,+5.06522596e-01f,-2.16396879e-02f,
    +4.89553392e-01f,+6.10934757e-02f,-1.13479805e+00f,+5.83335459e-01f,-1.09808159e+00f,
    +9.28149819e-01f,+7.38042772e-01f,+5.12997568e-01f,-3.03437740e-01f,-8.78271386e-02f,
    +1.15598738e+00f,+1.14940596e+00f,-6.59775794e-01f,+7.36222327e-01f,+4.73150909e-02f,
    -4.61807370e-01f,+9.17685807e-01f,-6.89390749e-02f,+7.19443142e-01f,-5.21510482e-01f,
    +1.10947102e-01f,+6.49599969e-01f,-6.18435204e-01f,+6.04231477e-01f,+1.03527880e+00f,
    +8.27472210e-01f,-5.62004626e-01f,-5.65049760e-02f,-4.32603925e-01f,+9.05144036e-01f,
